{
    "name": "tree",
    "version": "v4",
    "num_class": 1,
    "num_tree_per_iteration": 1,
    "label_index": 0,
    "max_feature_idx": 9,
    "objective": "regression",
    "average_output": false,
    "feature_names": [
        "Column_0",
        "Column_1",
        "Column_2",
        "Column_3",
        "Column_4",
        "Column_5",
        "Column_6",
        "Column_7",
        "Column_8",
        "Column_9"
    ],
    "monotone_constraints": [],
    "feature_infos": {
        "Column_0": {
            "min_value": 0.0030208713561612477,
            "max_value": 0.9966832779346796,
            "values": []
        },
        "Column_1": {
            "min_value": 3.071884538241587e-05,
            "max_value": 0.9997176732861306,
            "values": []
        },
        "Column_2": {
            "min_value": 1.1634755366141114e-05,
            "max_value": 0.9988926120332906,
            "values": []
        },
        "Column_3": {
            "min_value": 0.0004015440253398728,
            "max_value": 0.9994606810596732,
            "values": []
        },
        "Column_4": {
            "min_value": 0.001353625715468154,
            "max_value": 0.9994137257706665,
            "values": []
        },
        "Column_5": {
            "min_value": 0.00022703821825553747,
            "max_value": 0.9989046997630768,
            "values": []
        },
        "Column_6": {
            "min_value": 0.00041028943917487126,
            "max_value": 0.9941393612211676,
            "values": []
        },
        "Column_7": {
            "min_value": 5.282693229680113e-05,
            "max_value": 0.9995051897085164,
            "values": []
        },
        "Column_8": {
            "min_value": 0.0009058352460902253,
            "max_value": 0.9992072989434408,
            "values": []
        },
        "Column_9": {
            "min_value": 0.0011120941961874076,
            "max_value": 0.9995577032504384,
            "values": []
        }
    },
    "tree_info": [
        {
            "tree_index": 0,
            "num_leaves": 25,
            "num_cat": 0,
            "shrinkage": 1,
            "tree_structure": {
                "split_index": 0,
                "split_feature": 2,
                "split_gain": 0.8049259781837463,
                "threshold": 0.633946699816291,
                "decision_type": "<=",
                "default_left": true,
                "missing_type": "None",
                "internal_value": 0.504282,
                "internal_weight": 0,
                "internal_count": 647,
                "left_child": {
                    "split_index": 1,
                    "split_feature": 2,
                    "split_gain": 0.7608050107955933,
                    "threshold": 0.025496404610946603,
                    "decision_type": "<=",
                    "default_left": true,
                    "missing_type": "None",
                    "internal_value": 0.503266,
                    "internal_weight": 403,
                    "internal_count": 403,
                    "left_child": {
                        "leaf_index": 0,
                        "leaf_value": 0.5118993672002883,
                        "leaf_weight": 24,
                        "leaf_count": 24
                    },
                    "right_child": {
                        "split_index": 2,
                        "split_feature": 0,
                        "split_gain": 0.9264119863510132,
                        "threshold": 0.5576270413917085,
                        "decision_type": "<=",
                        "default_left": true,
                        "missing_type": "None",
                        "internal_value": 0.50272,
                        "internal_weight": 379,
                        "internal_count": 379,
                        "left_child": {
                            "split_index": 14,
                            "split_feature": 0,
                            "split_gain": 0.3661409914493561,
                            "threshold": 0.5127706279252647,
                            "decision_type": "<=",
                            "default_left": true,
                            "missing_type": "None",
                            "internal_value": 0.500561,
                            "internal_weight": 215,
                            "internal_count": 215,
                            "left_child": {
                                "split_index": 15,
                                "split_feature": 1,
                                "split_gain": 0.43755000829696655,
                                "threshold": 0.10590534949819898,
                                "decision_type": "<=",
                                "default_left": true,
                                "missing_type": "None",
                                "internal_value": 0.501239,
                                "internal_weight": 194,
                                "internal_count": 194,
                                "left_child": {
                                    "leaf_index": 2,
                                    "leaf_value": 0.5082433511677664,
                                    "leaf_weight": 20,
                                    "leaf_count": 20
                                },
                                "right_child": {
                                    "split_index": 16,
                                    "split_feature": 2,
                                    "split_gain": 0.4576520025730133,
                                    "threshold": 0.5196076063885738,
                                    "decision_type": "<=",
                                    "default_left": true,
                                    "missing_type": "None",
                                    "internal_value": 0.500434,
                                    "internal_weight": 174,
                                    "internal_count": 174,
                                    "left_child": {
                                        "split_index": 17,
                                        "split_feature": 2,
                                        "split_gain": 0.3692519962787628,
                                        "threshold": 0.18552365504101578,
                                        "decision_type": "<=",
                                        "default_left": true,
                                        "missing_type": "None",
                                        "internal_value": 0.499194,
                                        "internal_weight": 141,
                                        "internal_count": 141,
                                        "left_child": {
                                            "split_index": 18,
                                            "split_feature": 2,
                                            "split_gain": 0.4262140095233917,
                                            "threshold": 0.10771475346383043,
                                            "decision_type": "<=",
                                            "default_left": true,
                                            "missing_type": "None",
                                            "internal_value": 0.503122,
                                            "internal_weight": 42,
                                            "internal_count": 42,
                                            "left_child": {
                                                "leaf_index": 16,
                                                "leaf_value": 0.4978395166329574,
                                                "leaf_weight": 20,
                                                "leaf_count": 20
                                            },
                                            "right_child": {
                                                "leaf_index": 19,
                                                "leaf_value": 0.5079246580174235,
                                                "leaf_weight": 22,
                                                "leaf_count": 22
                                            }
                                        },
                                        "right_child": {
                                            "split_index": 20,
                                            "split_feature": 6,
                                            "split_gain": 0.2840610146522522,
                                            "threshold": 0.7431171946189757,
                                            "decision_type": "<=",
                                            "default_left": true,
                                            "missing_type": "None",
                                            "internal_value": 0.497527,
                                            "internal_weight": 99,
                                            "internal_count": 99,
                                            "left_child": {
                                                "split_index": 21,
                                                "split_feature": 9,
                                                "split_gain": 0.5550320148468018,
                                                "threshold": 0.4185462891751376,
                                                "decision_type": "<=",
                                                "default_left": true,
                                                "missing_type": "None",
                                                "internal_value": 0.496138,
                                                "internal_weight": 78,
                                                "internal_count": 78,
                                                "left_child": {
                                                    "leaf_index": 18,
                                                    "leaf_value": 0.4899963805756997,
                                                    "leaf_weight": 25,
                                                    "leaf_count": 25
                                                },
                                                "right_child": {
                                                    "split_index": 22,
                                                    "split_feature": 2,
                                                    "split_gain": 0.4047510027885437,
                                                    "threshold": 0.3002208331029972,
                                                    "decision_type": "<=",
                                                    "default_left": true,
                                                    "missing_type": "None",
                                                    "internal_value": 0.499034,
                                                    "internal_weight": 53,
                                                    "internal_count": 53,
                                                    "left_child": {
                                                        "leaf_index": 22,
                                                        "leaf_value": 0.5034869714327551,
                                                        "leaf_weight": 26,
                                                        "leaf_count": 26
                                                    },
                                                    "right_child": {
                                                        "leaf_index": 23,
                                                        "leaf_value": 0.4947465310994637,
                                                        "leaf_weight": 27,
                                                        "leaf_count": 27
                                                    }
                                                }
                                            },
                                            "right_child": {
                                                "leaf_index": 21,
                                                "leaf_value": 0.5026889585793972,
                                                "leaf_weight": 21,
                                                "leaf_count": 21
                                            }
                                        }
                                    },
                                    "right_child": {
                                        "leaf_index": 17,
                                        "leaf_value": 0.5057348421969183,
                                        "leaf_weight": 33,
                                        "leaf_count": 33
                                    }
                                }
                            },
                            "right_child": {
                                "leaf_index": 15,
                                "leaf_value": 0.49428911846325113,
                                "leaf_weight": 21,
                                "leaf_count": 21
                            }
                        },
                        "right_child": {
                            "split_index": 3,
                            "split_feature": 2,
                            "split_gain": 0.5166440010070801,
                            "threshold": 0.5050925882686287,
                            "decision_type": "<=",
                            "default_left": true,
                            "missing_type": "None",
                            "internal_value": 0.50555,
                            "internal_weight": 164,
                            "internal_count": 164,
                            "left_child": {
                                "split_index": 4,
                                "split_feature": 6,
                                "split_gain": 0.4958530068397522,
                                "threshold": 0.19960609448489594,
                                "decision_type": "<=",
                                "default_left": true,
                                "missing_type": "None",
                                "internal_value": 0.507197,
                                "internal_weight": 122,
                                "internal_count": 122,
                                "left_child": {
                                    "leaf_index": 3,
                                    "leaf_value": 0.5136378713499289,
                                    "leaf_weight": 24,
                                    "leaf_count": 24
                                },
                                "right_child": {
                                    "split_index": 5,
                                    "split_feature": 9,
                                    "split_gain": 0.6728429794311523,
                                    "threshold": 0.16950555225745598,
                                    "decision_type": "<=",
                                    "default_left": true,
                                    "missing_type": "None",
                                    "internal_value": 0.505619,
                                    "internal_weight": 98,
                                    "internal_count": 98,
                                    "left_child": {
                                        "leaf_index": 5,
                                        "leaf_value": 0.5131004642255341,
                                        "leaf_weight": 23,
                                        "leaf_count": 23
                                    },
                                    "right_child": {
                                        "split_index": 6,
                                        "split_feature": 5,
                                        "split_gain": 0.5438770055770874,
                                        "threshold": 0.5045802575477825,
                                        "decision_type": "<=",
                                        "default_left": true,
                                        "missing_type": "None",
                                        "internal_value": 0.503325,
                                        "internal_weight": 75,
                                        "internal_count": 75,
                                        "left_child": {
                                            "leaf_index": 6,
                                            "leaf_value": 0.5076398172100842,
                                            "leaf_weight": 37,
                                            "leaf_count": 37
                                        },
                                        "right_child": {
                                            "leaf_index": 7,
                                            "leaf_value": 0.4991233759473069,
                                            "leaf_weight": 38,
                                            "leaf_count": 38
                                        }
                                    }
                                }
                            },
                            "right_child": {
                                "split_index": 13,
                                "split_feature": 1,
                                "split_gain": 0.432778000831604,
                                "threshold": 0.5070824623827935,
                                "decision_type": "<=",
                                "default_left": true,
                                "missing_type": "None",
                                "internal_value": 0.500767,
                                "internal_weight": 42,
                                "internal_count": 42,
                                "left_child": {
                                    "leaf_index": 4,
                                    "leaf_value": 0.5058424694545102,
                                    "leaf_weight": 21,
                                    "leaf_count": 21
                                },
                                "right_child": {
                                    "leaf_index": 14,
                                    "leaf_value": 0.49569149533480716,
                                    "leaf_weight": 21,
                                    "leaf_count": 21
                                }
                            }
                        }
                    }
                },
                "right_child": {
                    "split_index": 7,
                    "split_feature": 2,
                    "split_gain": 0.4675540030002594,
                    "threshold": 0.8020193101925001,
                    "decision_type": "<=",
                    "default_left": true,
                    "missing_type": "None",
                    "internal_value": 0.506905,
                    "internal_weight": 244,
                    "internal_count": 244,
                    "left_child": {
                        "split_index": 8,
                        "split_feature": 6,
                        "split_gain": 0.5683299899101257,
                        "threshold": 0.431626398693032,
                        "decision_type": "<=",
                        "default_left": true,
                        "missing_type": "None",
                        "internal_value": 0.509167,
                        "internal_weight": 118,
                        "internal_count": 118,
                        "left_child": {
                            "split_index": 10,
                            "split_feature": 5,
                            "split_gain": 0.4698309898376465,
                            "threshold": 0.4639740875487591,
                            "decision_type": "<=",
                            "default_left": true,
                            "missing_type": "None",
                            "internal_value": 0.505257,
                            "internal_weight": 52,
                            "internal_count": 52,
                            "left_child": {
                                "leaf_index": 1,
                                "leaf_value": 0.5005047034625358,
                                "leaf_weight": 26,
                                "leaf_count": 26
                            },
                            "right_child": {
                                "leaf_index": 11,
                                "leaf_value": 0.5100100791199097,
                                "leaf_weight": 26,
                                "leaf_count": 26
                            }
                        },
                        "right_child": {
                            "split_index": 9,
                            "split_feature": 8,
                            "split_gain": 0.7554829716682434,
                            "threshold": 0.43938677151130806,
                            "decision_type": "<=",
                            "default_left": true,
                            "missing_type": "None",
                            "internal_value": 0.512247,
                            "internal_weight": 66,
                            "internal_count": 66,
                            "left_child": {
                                "leaf_index": 9,
                                "leaf_value": 0.5177608575607883,
                                "leaf_weight": 32,
                                "leaf_count": 32
                            },
                            "right_child": {
                                "leaf_index": 10,
                                "leaf_value": 0.5070570129356073,
                                "leaf_weight": 34,
                                "leaf_count": 34
                            }
                        }
                    },
                    "right_child": {
                        "split_index": 11,
                        "split_feature": 9,
                        "split_gain": 0.45120498538017273,
                        "threshold": 0.27641259632918236,
                        "decision_type": "<=",
                        "default_left": true,
                        "missing_type": "None",
                        "internal_value": 0.504787,
                        "internal_weight": 126,
                        "internal_count": 126,
                        "left_child": {
                            "leaf_index": 8,
                            "leaf_value": 0.5000560182047128,
                            "leaf_weight": 36,
                            "leaf_count": 36
                        },
                        "right_child": {
                            "split_index": 12,
                            "split_feature": 0,
                            "split_gain": 0.622793972492218,
                            "threshold": 0.7391096786633079,
                            "decision_type": "<=",
                            "default_left": true,
                            "missing_type": "None",
                            "internal_value": 0.506679,
                            "internal_weight": 90,
                            "internal_count": 90,
                            "left_child": {
                                "split_index": 19,
                                "split_feature": 9,
                                "split_gain": 0.3047400116920471,
                                "threshold": 0.5084724340711676,
                                "decision_type": "<=",
                                "default_left": true,
                                "missing_type": "None",
                                "internal_value": 0.508902,
                                "internal_weight": 70,
                                "internal_count": 70,
                                "left_child": {
                                    "leaf_index": 12,
                                    "leaf_value": 0.5134697814902757,
                                    "leaf_weight": 24,
                                    "leaf_count": 24
                                },
                                "right_child": {
                                    "split_index": 23,
                                    "split_feature": 2,
                                    "split_gain": 0.17760300636291504,
                                    "threshold": 0.9090395960769274,
                                    "decision_type": "<=",
                                    "default_left": true,
                                    "missing_type": "None",
                                    "internal_value": 0.50652,
                                    "internal_weight": 46,
                                    "internal_count": 46,
                                    "left_child": {
                                        "leaf_index": 20,
                                        "leaf_value": 0.5032745844141623,
                                        "leaf_weight": 22,
                                        "leaf_count": 22
                                    },
                                    "right_child": {
                                        "leaf_index": 24,
                                        "leaf_value": 0.5094941087890765,
                                        "leaf_weight": 24,
                                        "leaf_count": 24
                                    }
                                }
                            },
                            "right_child": {
                                "leaf_index": 13,
                                "leaf_value": 0.49889789381879385,
                                "leaf_weight": 20,
                                "leaf_count": 20
                            }
                        }
                    }
                }
            }
        },
        {
            "tree_index": 1,
            "num_leaves": 26,
            "num_cat": 0,
            "shrinkage": 0.05,
            "tree_structure": {
                "split_index": 0,
                "split_feature": 2,
                "split_gain": 0.7264459729194641,
                "threshold": 0.633946699816291,
                "decision_type": "<=",
                "default_left": true,
                "missing_type": "None",
                "internal_value": 0,
                "internal_weight": 0,
                "internal_count": 647,
                "left_child": {
                    "split_index": 1,
                    "split_feature": 2,
                    "split_gain": 0.6866260170936584,
                    "threshold": 0.025496404610946603,
                    "decision_type": "<=",
                    "default_left": true,
                    "missing_type": "None",
                    "internal_value": -0.000965298,
                    "internal_weight": 403,
                    "internal_count": 403,
                    "left_child": {
                        "leaf_index": 0,
                        "leaf_value": 0.007236170209944249,
                        "leaf_weight": 24,
                        "leaf_count": 24
                    },
                    "right_child": {
                        "split_index": 2,
                        "split_feature": 0,
                        "split_gain": 0.8360869884490967,
                        "threshold": 0.5576270413917085,
                        "decision_type": "<=",
                        "default_left": true,
                        "missing_type": "None",
                        "internal_value": -0.00148465,
                        "internal_weight": 379,
                        "internal_count": 379,
                        "left_child": {
                            "split_index": 15,
                            "split_feature": 0,
                            "split_gain": 0.33044201135635376,
                            "threshold": 0.5127706279252647,
                            "decision_type": "<=",
                            "default_left": true,
                            "missing_type": "None",
                            "internal_value": -0.00353571,
                            "internal_weight": 215,
                            "internal_count": 215,
                            "left_child": {
                                "split_index": 16,
                                "split_feature": 5,
                                "split_gain": 0.42196300625801086,
                                "threshold": 0.6210783668174807,
                                "decision_type": "<=",
                                "default_left": true,
                                "missing_type": "None",
                                "internal_value": -0.00289079,
                                "internal_weight": 194,
                                "internal_count": 194,
                                "left_child": {
                                    "split_index": 17,
                                    "split_feature": 5,
                                    "split_gain": 0.5196939706802368,
                                    "threshold": 0.32985541642128857,
                                    "decision_type": "<=",
                                    "default_left": true,
                                    "missing_type": "None",
                                    "internal_value": -0.000958063,
                                    "internal_weight": 115,
                                    "internal_count": 115,
                                    "left_child": {
                                        "split_index": 19,
                                        "split_feature": 2,
                                        "split_gain": 0.36245399713516235,
                                        "threshold": 0.23829125233454493,
                                        "decision_type": "<=",
                                        "default_left": true,
                                        "missing_type": "None",
                                        "internal_value": -0.00401176,
                                        "internal_weight": 63,
                                        "internal_count": 63,
                                        "left_child": {
                                            "leaf_index": 2,
                                            "leaf_value": 0.0015491389599628749,
                                            "leaf_weight": 20,
                                            "leaf_count": 20
                                        },
                                        "right_child": {
                                            "split_index": 24,
                                            "split_feature": 2,
                                            "split_gain": 0.16524599492549896,
                                            "threshold": 0.43966050703613857,
                                            "decision_type": "<=",
                                            "default_left": true,
                                            "missing_type": "None",
                                            "internal_value": -0.00659823,
                                            "internal_weight": 43,
                                            "internal_count": 43,
                                            "left_child": {
                                                "leaf_index": 20,
                                                "leaf_value": -0.009626536291431297,
                                                "leaf_weight": 22,
                                                "leaf_count": 22
                                            },
                                            "right_child": {
                                                "leaf_index": 25,
                                                "leaf_value": -0.003425713201674322,
                                                "leaf_weight": 21,
                                                "leaf_count": 21
                                            }
                                        }
                                    },
                                    "right_child": {
                                        "split_index": 21,
                                        "split_feature": 6,
                                        "split_gain": 0.2864930033683777,
                                        "threshold": 0.42461419206789675,
                                        "decision_type": "<=",
                                        "default_left": true,
                                        "missing_type": "None",
                                        "internal_value": 0.00274161,
                                        "internal_weight": 52,
                                        "internal_count": 52,
                                        "left_child": {
                                            "leaf_index": 18,
                                            "leaf_value": 0.007436065416550264,
                                            "leaf_weight": 20,
                                            "leaf_count": 20
                                        },
                                        "right_child": {
                                            "leaf_index": 22,
                                            "leaf_value": -0.00019242234266130255,
                                            "leaf_weight": 32,
                                            "leaf_count": 32
                                        }
                                    }
                                },
                                "right_child": {
                                    "split_index": 18,
                                    "split_feature": 5,
                                    "split_gain": 0.3746039867401123,
                                    "threshold": 0.7408315369413291,
                                    "decision_type": "<=",
                                    "default_left": true,
                                    "missing_type": "None",
                                    "internal_value": -0.00570426,
                                    "internal_weight": 79,
                                    "internal_count": 79,
                                    "left_child": {
                                        "leaf_index": 17,
                                        "leaf_value": -0.011076711741802485,
                                        "leaf_weight": 23,
                                        "leaf_count": 23
                                    },
                                    "right_child": {
                                        "split_index": 23,
                                        "split_feature": 4,
                                        "split_gain": 0.21261699497699738,
                                        "threshold": 0.24124718338235754,
                                        "decision_type": "<=",
                                        "default_left": true,
                                        "missing_type": "None",
                                        "internal_value": -0.00349772,
                                        "internal_weight": 56,
                                        "internal_count": 56,
                                        "left_child": {
                                            "leaf_index": 19,
                                            "leaf_value": -0.007188067528540673,
                                            "leaf_weight": 23,
                                            "leaf_count": 23
                                        },
                                        "right_child": {
                                            "leaf_index": 24,
                                            "leaf_value": -0.000925652767446908,
                                            "leaf_weight": 33,
                                            "leaf_count": 33
                                        }
                                    }
                                }
                            },
                            "right_child": {
                                "leaf_index": 16,
                                "leaf_value": -0.009493565958525454,
                                "leaf_weight": 21,
                                "leaf_count": 21
                            }
                        },
                        "right_child": {
                            "split_index": 3,
                            "split_feature": 2,
                            "split_gain": 0.4662710130214691,
                            "threshold": 0.5050925882686287,
                            "decision_type": "<=",
                            "default_left": true,
                            "missing_type": "None",
                            "internal_value": 0.00120424,
                            "internal_weight": 164,
                            "internal_count": 164,
                            "left_child": {
                                "split_index": 4,
                                "split_feature": 6,
                                "split_gain": 0.44750699400901794,
                                "threshold": 0.19960609448489594,
                                "decision_type": "<=",
                                "default_left": true,
                                "missing_type": "None",
                                "internal_value": 0.00276851,
                                "internal_weight": 122,
                                "internal_count": 122,
                                "left_child": {
                                    "leaf_index": 3,
                                    "leaf_value": 0.008887749537825585,
                                    "leaf_weight": 24,
                                    "leaf_count": 24
                                },
                                "right_child": {
                                    "split_index": 5,
                                    "split_feature": 9,
                                    "split_gain": 0.6072409749031067,
                                    "threshold": 0.16950555225745598,
                                    "decision_type": "<=",
                                    "default_left": true,
                                    "missing_type": "None",
                                    "internal_value": 0.00126992,
                                    "internal_weight": 98,
                                    "internal_count": 98,
                                    "left_child": {
                                        "leaf_index": 5,
                                        "leaf_value": 0.00837721252015478,
                                        "leaf_weight": 23,
                                        "leaf_count": 23
                                    },
                                    "right_child": {
                                        "split_index": 6,
                                        "split_feature": 9,
                                        "split_gain": 0.5044490098953247,
                                        "threshold": 0.6457652350407256,
                                        "decision_type": "<=",
                                        "default_left": true,
                                        "missing_type": "None",
                                        "internal_value": -0.000909649,
                                        "internal_weight": 75,
                                        "internal_count": 75,
                                        "left_child": {
                                            "split_index": 7,
                                            "split_feature": 6,
                                            "split_gain": 0.7330679893493652,
                                            "threshold": 0.6752446600282821,
                                            "decision_type": "<=",
                                            "default_left": true,
                                            "missing_type": "None",
                                            "internal_value": -0.00380921,
                                            "internal_weight": 50,
                                            "internal_count": 50,
                                            "left_child": {
                                                "leaf_index": 6,
                                                "leaf_value": 0.0011340223687390488,
                                                "leaf_weight": 30,
                                                "leaf_count": 30
                                            },
                                            "right_child": {
                                                "leaf_index": 8,
                                                "leaf_value": -0.011224069053423592,
                                                "leaf_weight": 20,
                                                "leaf_count": 20
                                            }
                                        },
                                        "right_child": {
                                            "leaf_index": 7,
                                            "leaf_value": 0.004889481246471405,
                                            "leaf_weight": 25,
                                            "leaf_count": 25
                                        }
                                    }
                                }
                            },
                            "right_child": {
                                "split_index": 20,
                                "split_feature": 7,
                                "split_gain": 0.2885429859161377,
                                "threshold": 0.47839115151747036,
                                "decision_type": "<=",
                                "default_left": true,
                                "missing_type": "None",
                                "internal_value": -0.0033396,
                                "internal_weight": 42,
                                "internal_count": 42,
                                "left_child": {
                                    "leaf_index": 4,
                                    "leaf_value": -0.007483892125033197,
                                    "leaf_weight": 21,
                                    "leaf_count": 21
                                },
                                "right_child": {
                                    "leaf_index": 21,
                                    "leaf_value": 0.0008047018333205156,
                                    "leaf_weight": 21,
                                    "leaf_count": 21
                                }
                            }
                        }
                    }
                },
                "right_child": {
                    "split_index": 8,
                    "split_feature": 3,
                    "split_gain": 0.4383060038089752,
                    "threshold": 0.6583503544149393,
                    "decision_type": "<=",
                    "default_left": true,
                    "missing_type": "None",
                    "internal_value": 0.00249152,
                    "internal_weight": 244,
                    "internal_count": 244,
                    "left_child": {
                        "split_index": 10,
                        "split_feature": 3,
                        "split_gain": 0.4813149869441986,
                        "threshold": 0.18294585986890247,
                        "decision_type": "<=",
                        "default_left": true,
                        "missing_type": "None",
                        "internal_value": 0.00382218,
                        "internal_weight": 175,
                        "internal_count": 175,
                        "left_child": {
                            "leaf_index": 1,
                            "leaf_value": -0.0010745066492698896,
                            "leaf_weight": 39,
                            "leaf_count": 39
                        },
                        "right_child": {
                            "split_index": 11,
                            "split_feature": 2,
                            "split_gain": 0.508916974067688,
                            "threshold": 0.8020193101925001,
                            "decision_type": "<=",
                            "default_left": true,
                            "missing_type": "None",
                            "internal_value": 0.00522638,
                            "internal_weight": 136,
                            "internal_count": 136,
                            "left_child": {
                                "split_index": 14,
                                "split_feature": 0,
                                "split_gain": 0.37156999111175537,
                                "threshold": 0.30109912653753695,
                                "decision_type": "<=",
                                "default_left": true,
                                "missing_type": "None",
                                "internal_value": 0.00828499,
                                "internal_weight": 68,
                                "internal_count": 68,
                                "left_child": {
                                    "leaf_index": 11,
                                    "leaf_value": 0.014010862625436857,
                                    "leaf_weight": 20,
                                    "leaf_count": 20
                                },
                                "right_child": {
                                    "split_index": 22,
                                    "split_feature": 7,
                                    "split_gain": 0.2579129934310913,
                                    "threshold": 0.6069745620998165,
                                    "decision_type": "<=",
                                    "default_left": true,
                                    "missing_type": "None",
                                    "internal_value": 0.00589921,
                                    "internal_weight": 48,
                                    "internal_count": 48,
                                    "left_child": {
                                        "leaf_index": 15,
                                        "leaf_value": 0.0026668964436760657,
                                        "leaf_weight": 27,
                                        "leaf_count": 27
                                    },
                                    "right_child": {
                                        "leaf_index": 23,
                                        "leaf_value": 0.0100550479787801,
                                        "leaf_weight": 21,
                                        "leaf_count": 21
                                    }
                                }
                            },
                            "right_child": {
                                "split_index": 12,
                                "split_feature": 0,
                                "split_gain": 0.3734869956970215,
                                "threshold": 0.5645635718049488,
                                "decision_type": "<=",
                                "default_left": true,
                                "missing_type": "None",
                                "internal_value": 0.00216777,
                                "internal_weight": 68,
                                "internal_count": 68,
                                "left_child": {
                                    "split_index": 13,
                                    "split_feature": 8,
                                    "split_gain": 0.390157014131546,
                                    "threshold": 0.5121292663162756,
                                    "decision_type": "<=",
                                    "default_left": true,
                                    "missing_type": "None",
                                    "internal_value": 0.00490451,
                                    "internal_weight": 44,
                                    "internal_count": 44,
                                    "left_child": {
                                        "leaf_index": 12,
                                        "leaf_value": 0.00019621838900175963,
                                        "leaf_weight": 22,
                                        "leaf_count": 22
                                    },
                                    "right_child": {
                                        "leaf_index": 14,
                                        "leaf_value": 0.009612796519120987,
                                        "leaf_weight": 22,
                                        "leaf_count": 22
                                    }
                                },
                                "right_child": {
                                    "leaf_index": 13,
                                    "leaf_value": -0.002849573024529188,
                                    "leaf_weight": 24,
                                    "leaf_count": 24
                                }
                            }
                        }
                    },
                    "right_child": {
                        "split_index": 9,
                        "split_feature": 3,
                        "split_gain": 0.5170900225639343,
                        "threshold": 0.8098564744955021,
                        "decision_type": "<=",
                        "default_left": true,
                        "missing_type": "None",
                        "internal_value": -0.000883362,
                        "internal_weight": 69,
                        "internal_count": 69,
                        "left_child": {
                            "leaf_index": 9,
                            "leaf_value": -0.005274965134723222,
                            "leaf_weight": 34,
                            "leaf_count": 34
                        },
                        "right_child": {
                            "leaf_index": 10,
                            "leaf_value": 0.0033827676357967513,
                            "leaf_weight": 35,
                            "leaf_count": 35
                        }
                    }
                }
            }
        },
        {
            "tree_index": 2,
            "num_leaves": 25,
            "num_cat": 0,
            "shrinkage": 0.05,
            "tree_structure": {
                "split_index": 0,
                "split_feature": 4,
                "split_gain": 0.5474429726600647,
                "threshold": 0.7607908127024189,
                "decision_type": "<=",
                "default_left": true,
                "missing_type": "None",
                "internal_value": 0,
                "internal_weight": 0,
                "internal_count": 647,
                "left_child": {
                    "split_index": 2,
                    "split_feature": 4,
                    "split_gain": 0.5658289790153503,
                    "threshold": 0.6895462564037046,
                    "decision_type": "<=",
                    "default_left": true,
                    "missing_type": "None",
                    "internal_value": -0.000477578,
                    "internal_weight": 497,
                    "internal_count": 497,
                    "left_child": {
                        "split_index": 3,
                        "split_feature": 1,
                        "split_gain": 0.5589249730110168,
                        "threshold": 0.42963038073626764,
                        "decision_type": "<=",
                        "default_left": true,
                        "missing_type": "None",
                        "internal_value": -3.5007200000000006e-05,
                        "internal_weight": 465,
                        "internal_count": 465,
                        "left_child": {
                            "split_index": 4,
                            "split_feature": 1,
                            "split_gain": 0.5889340043067932,
                            "threshold": 0.2892040232702733,
                            "decision_type": "<=",
                            "default_left": true,
                            "missing_type": "None",
                            "internal_value": 0.00194298,
                            "internal_weight": 202,
                            "internal_count": 202,
                            "left_child": {
                                "split_index": 7,
                                "split_feature": 9,
                                "split_gain": 0.529787003993988,
                                "threshold": 0.4641119685898029,
                                "decision_type": "<=",
                                "default_left": true,
                                "missing_type": "None",
                                "internal_value": 0.000208829,
                                "internal_weight": 143,
                                "internal_count": 143,
                                "left_child": {
                                    "split_index": 11,
                                    "split_feature": 9,
                                    "split_gain": 0.3732689917087555,
                                    "threshold": 0.27641259632918236,
                                    "decision_type": "<=",
                                    "default_left": true,
                                    "missing_type": "None",
                                    "internal_value": 0.00310668,
                                    "internal_weight": 75,
                                    "internal_count": 75,
                                    "left_child": {
                                        "split_index": 12,
                                        "split_feature": 5,
                                        "split_gain": 0.41095298528671265,
                                        "threshold": 0.565023502503786,
                                        "decision_type": "<=",
                                        "default_left": true,
                                        "missing_type": "None",
                                        "internal_value": 0.000145912,
                                        "internal_weight": 44,
                                        "internal_count": 44,
                                        "left_child": {
                                            "leaf_index": 0,
                                            "leaf_value": -0.00426521249076662,
                                            "leaf_weight": 24,
                                            "leaf_count": 24
                                        },
                                        "right_child": {
                                            "leaf_index": 13,
                                            "leaf_value": 0.005439260769635439,
                                            "leaf_weight": 20,
                                            "leaf_count": 20
                                        }
                                    },
                                    "right_child": {
                                        "leaf_index": 12,
                                        "leaf_value": 0.007309063501088531,
                                        "leaf_weight": 31,
                                        "leaf_count": 31
                                    }
                                },
                                "right_child": {
                                    "split_index": 13,
                                    "split_feature": 9,
                                    "split_gain": 0.36357399821281433,
                                    "threshold": 0.6193424375718873,
                                    "decision_type": "<=",
                                    "default_left": true,
                                    "missing_type": "None",
                                    "internal_value": -0.00298733,
                                    "internal_weight": 68,
                                    "internal_count": 68,
                                    "left_child": {
                                        "leaf_index": 8,
                                        "leaf_value": -0.0084568814152763,
                                        "leaf_weight": 21,
                                        "leaf_count": 21
                                    },
                                    "right_child": {
                                        "split_index": 21,
                                        "split_feature": 8,
                                        "split_gain": 0.15231800079345703,
                                        "threshold": 0.36306579345540363,
                                        "decision_type": "<=",
                                        "default_left": true,
                                        "missing_type": "None",
                                        "internal_value": -0.000543491,
                                        "internal_weight": 47,
                                        "internal_count": 47,
                                        "left_child": {
                                            "leaf_index": 14,
                                            "leaf_value": -0.003710679667780087,
                                            "leaf_weight": 21,
                                            "leaf_count": 21
                                        },
                                        "right_child": {
                                            "leaf_index": 22,
                                            "leaf_value": 0.002014622622384475,
                                            "leaf_weight": 26,
                                            "leaf_count": 26
                                        }
                                    }
                                }
                            },
                            "right_child": {
                                "split_index": 5,
                                "split_feature": 5,
                                "split_gain": 0.8172630071640015,
                                "threshold": 0.4542428134187094,
                                "decision_type": "<=",
                                "default_left": true,
                                "missing_type": "None",
                                "internal_value": 0.00614608,
                                "internal_weight": 59,
                                "internal_count": 59,
                                "left_child": {
                                    "leaf_index": 5,
                                    "leaf_value": 0.012775797905543677,
                                    "leaf_weight": 26,
                                    "leaf_count": 26
                                },
                                "right_child": {
                                    "leaf_index": 6,
                                    "leaf_value": 0.0009226582196512909,
                                    "leaf_weight": 33,
                                    "leaf_count": 33
                                }
                            }
                        },
                        "right_child": {
                            "split_index": 8,
                            "split_feature": 8,
                            "split_gain": 0.41004401445388794,
                            "threshold": 0.5956524600782317,
                            "decision_type": "<=",
                            "default_left": true,
                            "missing_type": "None",
                            "internal_value": -0.00155422,
                            "internal_weight": 263,
                            "internal_count": 263,
                            "left_child": {
                                "split_index": 14,
                                "split_feature": 9,
                                "split_gain": 0.3617120087146759,
                                "threshold": 0.8282310051619064,
                                "decision_type": "<=",
                                "default_left": true,
                                "missing_type": "None",
                                "internal_value": 0.00017268,
                                "internal_weight": 149,
                                "internal_count": 149,
                                "left_child": {
                                    "split_index": 15,
                                    "split_feature": 1,
                                    "split_gain": 0.5078989863395691,
                                    "threshold": 0.6111124433736376,
                                    "decision_type": "<=",
                                    "default_left": true,
                                    "missing_type": "None",
                                    "internal_value": -0.000825165,
                                    "internal_weight": 128,
                                    "internal_count": 128,
                                    "left_child": {
                                        "split_index": 16,
                                        "split_feature": 6,
                                        "split_gain": 0.3437719941139221,
                                        "threshold": 0.4653171761766851,
                                        "decision_type": "<=",
                                        "default_left": true,
                                        "missing_type": "None",
                                        "internal_value": -0.00549676,
                                        "internal_weight": 40,
                                        "internal_count": 40,
                                        "left_child": {
                                            "leaf_index": 4,
                                            "leaf_value": -0.01013203005772084,
                                            "leaf_weight": 20,
                                            "leaf_count": 20
                                        },
                                        "right_child": {
                                            "leaf_index": 17,
                                            "leaf_value": -0.0008614828903228044,
                                            "leaf_weight": 20,
                                            "leaf_count": 20
                                        }
                                    },
                                    "right_child": {
                                        "split_index": 17,
                                        "split_feature": 7,
                                        "split_gain": 0.2967759966850281,
                                        "threshold": 0.6364094845615468,
                                        "decision_type": "<=",
                                        "default_left": true,
                                        "missing_type": "None",
                                        "internal_value": 0.00129829,
                                        "internal_weight": 88,
                                        "internal_count": 88,
                                        "left_child": {
                                            "split_index": 18,
                                            "split_feature": 6,
                                            "split_gain": 0.45416200160980225,
                                            "threshold": 0.431626398693032,
                                            "decision_type": "<=",
                                            "default_left": true,
                                            "missing_type": "None",
                                            "internal_value": -0.000582044,
                                            "internal_weight": 62,
                                            "internal_count": 62,
                                            "left_child": {
                                                "leaf_index": 16,
                                                "leaf_value": 0.003697321700653242,
                                                "leaf_weight": 31,
                                                "leaf_count": 31
                                            },
                                            "right_child": {
                                                "leaf_index": 19,
                                                "leaf_value": -0.0048614106967204045,
                                                "leaf_weight": 31,
                                                "leaf_count": 31
                                            }
                                        },
                                        "right_child": {
                                            "leaf_index": 18,
                                            "leaf_value": 0.005782148829446389,
                                            "leaf_weight": 26,
                                            "leaf_count": 26
                                        }
                                    }
                                },
                                "right_child": {
                                    "leaf_index": 15,
                                    "leaf_value": 0.006254784286942422,
                                    "leaf_weight": 21,
                                    "leaf_count": 21
                                }
                            },
                            "right_child": {
                                "split_index": 9,
                                "split_feature": 4,
                                "split_gain": 0.6655330061912537,
                                "threshold": 0.1182049137985869,
                                "decision_type": "<=",
                                "default_left": true,
                                "missing_type": "None",
                                "internal_value": -0.0038113,
                                "internal_weight": 114,
                                "internal_count": 114,
                                "left_child": {
                                    "leaf_index": 9,
                                    "leaf_value": 0.004228292217504488,
                                    "leaf_weight": 21,
                                    "leaf_count": 21
                                },
                                "right_child": {
                                    "split_index": 22,
                                    "split_feature": 3,
                                    "split_gain": 0.13336700201034546,
                                    "threshold": 0.3510477228755367,
                                    "decision_type": "<=",
                                    "default_left": true,
                                    "missing_type": "None",
                                    "internal_value": -0.0056267,
                                    "internal_weight": 93,
                                    "internal_count": 93,
                                    "left_child": {
                                        "leaf_index": 10,
                                        "leaf_value": -0.0033487535890583935,
                                        "leaf_weight": 38,
                                        "leaf_count": 38
                                    },
                                    "right_child": {
                                        "split_index": 23,
                                        "split_feature": 8,
                                        "split_gain": 0.48384401202201843,
                                        "threshold": 0.758080665982538,
                                        "decision_type": "<=",
                                        "default_left": true,
                                        "missing_type": "None",
                                        "internal_value": -0.00720055,
                                        "internal_weight": 55,
                                        "internal_count": 55,
                                        "left_child": {
                                            "leaf_index": 23,
                                            "leaf_value": -0.002063283108174801,
                                            "leaf_weight": 25,
                                            "leaf_count": 25
                                        },
                                        "right_child": {
                                            "leaf_index": 24,
                                            "leaf_value": -0.011481601893901825,
                                            "leaf_weight": 30,
                                            "leaf_count": 30
                                        }
                                    }
                                }
                            }
                        }
                    },
                    "right_child": {
                        "leaf_index": 3,
                        "leaf_value": -0.006908684819063638,
                        "leaf_weight": 32,
                        "leaf_count": 32
                    }
                },
                "right_child": {
                    "split_index": 1,
                    "split_feature": 7,
                    "split_gain": 0.6361079812049866,
                    "threshold": 0.41357960260429727,
                    "decision_type": "<=",
                    "default_left": true,
                    "missing_type": "None",
                    "internal_value": 0.00296884,
                    "internal_weight": 150,
                    "internal_count": 150,
                    "left_child": {
                        "split_index": 6,
                        "split_feature": 7,
                        "split_gain": 0.5467569828033447,
                        "threshold": 0.3224386643217901,
                        "decision_type": "<=",
                        "default_left": true,
                        "missing_type": "None",
                        "internal_value": -0.000606708,
                        "internal_weight": 68,
                        "internal_count": 68,
                        "left_child": {
                            "split_index": 10,
                            "split_feature": 0,
                            "split_gain": 0.3750329911708832,
                            "threshold": 0.3713459819311691,
                            "decision_type": "<=",
                            "default_left": true,
                            "missing_type": "None",
                            "internal_value": 0.00259861,
                            "internal_weight": 45,
                            "internal_count": 45,
                            "left_child": {
                                "leaf_index": 1,
                                "leaf_value": -0.0025047250417992474,
                                "leaf_weight": 20,
                                "leaf_count": 20
                            },
                            "right_child": {
                                "leaf_index": 11,
                                "leaf_value": 0.0066812694221735,
                                "leaf_weight": 25,
                                "leaf_count": 25
                            }
                        },
                        "right_child": {
                            "leaf_index": 7,
                            "leaf_value": -0.006877972930669785,
                            "leaf_weight": 23,
                            "leaf_count": 23
                        }
                    },
                    "right_child": {
                        "split_index": 19,
                        "split_feature": 5,
                        "split_gain": 0.22803199291229248,
                        "threshold": 0.4128598631638652,
                        "decision_type": "<=",
                        "default_left": true,
                        "missing_type": "None",
                        "internal_value": 0.00593392,
                        "internal_weight": 82,
                        "internal_count": 82,
                        "left_child": {
                            "leaf_index": 2,
                            "leaf_value": 0.009405306112021209,
                            "leaf_weight": 30,
                            "leaf_count": 30
                        },
                        "right_child": {
                            "split_index": 20,
                            "split_feature": 6,
                            "split_gain": 0.2164510041475296,
                            "threshold": 0.5172891218828398,
                            "decision_type": "<=",
                            "default_left": true,
                            "missing_type": "None",
                            "internal_value": 0.0039312,
                            "internal_weight": 52,
                            "internal_count": 52,
                            "left_child": {
                                "leaf_index": 20,
                                "leaf_value": 0.00030890970864793813,
                                "leaf_weight": 23,
                                "leaf_count": 23
                            },
                            "right_child": {
                                "leaf_index": 21,
                                "leaf_value": 0.0068040561380571345,
                                "leaf_weight": 29,
                                "leaf_count": 29
                            }
                        }
                    }
                }
            }
        },
        {
            "tree_index": 3,
            "num_leaves": 26,
            "num_cat": 0,
            "shrinkage": 0.05,
            "tree_structure": {
                "split_index": 0,
                "split_feature": 2,
                "split_gain": 0.632394015789032,
                "threshold": 0.633946699816291,
                "decision_type": "<=",
                "default_left": true,
                "missing_type": "None",
                "internal_value": 0,
                "internal_weight": 0,
                "internal_count": 647,
                "left_child": {
                    "split_index": 1,
                    "split_feature": 2,
                    "split_gain": 0.6093230247497559,
                    "threshold": 0.025496404610946603,
                    "decision_type": "<=",
                    "default_left": true,
                    "missing_type": "None",
                    "internal_value": -0.000910973,
                    "internal_weight": 403,
                    "internal_count": 403,
                    "left_child": {
                        "leaf_index": 0,
                        "leaf_value": 0.006815038955149551,
                        "leaf_weight": 24,
                        "leaf_count": 24
                    },
                    "right_child": {
                        "split_index": 2,
                        "split_feature": 0,
                        "split_gain": 0.732026994228363,
                        "threshold": 0.5576270413917085,
                        "decision_type": "<=",
                        "default_left": true,
                        "missing_type": "None",
                        "internal_value": -0.00140022,
                        "internal_weight": 379,
                        "internal_count": 379,
                        "left_child": {
                            "split_index": 16,
                            "split_feature": 0,
                            "split_gain": 0.30101698637008667,
                            "threshold": 0.5127706279252647,
                            "decision_type": "<=",
                            "default_left": true,
                            "missing_type": "None",
                            "internal_value": -0.0033194,
                            "internal_weight": 215,
                            "internal_count": 215,
                            "left_child": {
                                "split_index": 17,
                                "split_feature": 5,
                                "split_gain": 0.37985101342201233,
                                "threshold": 0.6210783668174807,
                                "decision_type": "<=",
                                "default_left": true,
                                "missing_type": "None",
                                "internal_value": -0.00270387,
                                "internal_weight": 194,
                                "internal_count": 194,
                                "left_child": {
                                    "split_index": 18,
                                    "split_feature": 8,
                                    "split_gain": 0.4680989980697632,
                                    "threshold": 0.6594565101032911,
                                    "decision_type": "<=",
                                    "default_left": true,
                                    "missing_type": "None",
                                    "internal_value": -0.000870114,
                                    "internal_weight": 115,
                                    "internal_count": 115,
                                    "left_child": {
                                        "split_index": 19,
                                        "split_feature": 5,
                                        "split_gain": 0.44818198680877686,
                                        "threshold": 0.3017107653832234,
                                        "decision_type": "<=",
                                        "default_left": true,
                                        "missing_type": "None",
                                        "internal_value": 0.00137086,
                                        "internal_weight": 77,
                                        "internal_count": 77,
                                        "left_child": {
                                            "leaf_index": 2,
                                            "leaf_value": -0.0028078554743634805,
                                            "leaf_weight": 35,
                                            "leaf_count": 35
                                        },
                                        "right_child": {
                                            "split_index": 22,
                                            "split_feature": 7,
                                            "split_gain": 0.17731299996376038,
                                            "threshold": 0.5718176005315897,
                                            "decision_type": "<=",
                                            "default_left": true,
                                            "missing_type": "None",
                                            "internal_value": 0.00485312,
                                            "internal_weight": 42,
                                            "internal_count": 42,
                                            "left_child": {
                                                "leaf_index": 20,
                                                "leaf_value": 0.00826042598579079,
                                                "leaf_weight": 20,
                                                "leaf_count": 20
                                            },
                                            "right_child": {
                                                "leaf_index": 23,
                                                "leaf_value": 0.0017555623151234946,
                                                "leaf_weight": 22,
                                                "leaf_count": 22
                                            }
                                        }
                                    },
                                    "right_child": {
                                        "leaf_index": 19,
                                        "leaf_value": -0.005411028298304269,
                                        "leaf_weight": 38,
                                        "leaf_count": 38
                                    }
                                },
                                "right_child": {
                                    "split_index": 20,
                                    "split_feature": 5,
                                    "split_gain": 0.33047300577163696,
                                    "threshold": 0.7408315369413291,
                                    "decision_type": "<=",
                                    "default_left": true,
                                    "missing_type": "None",
                                    "internal_value": -0.00537325,
                                    "internal_weight": 79,
                                    "internal_count": 79,
                                    "left_child": {
                                        "leaf_index": 18,
                                        "leaf_value": -0.01041933441453654,
                                        "leaf_weight": 23,
                                        "leaf_count": 23
                                    },
                                    "right_child": {
                                        "split_index": 21,
                                        "split_feature": 4,
                                        "split_gain": 0.18703800439834595,
                                        "threshold": 0.24124718338235754,
                                        "decision_type": "<=",
                                        "default_left": true,
                                        "missing_type": "None",
                                        "internal_value": -0.00330075,
                                        "internal_weight": 56,
                                        "internal_count": 56,
                                        "left_child": {
                                            "leaf_index": 21,
                                            "leaf_value": -0.006762009145408545,
                                            "leaf_weight": 23,
                                            "leaf_count": 23
                                        },
                                        "right_child": {
                                            "leaf_index": 22,
                                            "leaf_value": -0.0008883576021727288,
                                            "leaf_weight": 33,
                                            "leaf_count": 33
                                        }
                                    }
                                }
                            },
                            "right_child": {
                                "leaf_index": 17,
                                "leaf_value": -0.009005803765640372,
                                "leaf_weight": 21,
                                "leaf_count": 21
                            }
                        },
                        "right_child": {
                            "split_index": 3,
                            "split_feature": 2,
                            "split_gain": 0.4186420142650604,
                            "threshold": 0.5050925882686287,
                            "decision_type": "<=",
                            "default_left": true,
                            "missing_type": "None",
                            "internal_value": 0.00111578,
                            "internal_weight": 164,
                            "internal_count": 164,
                            "left_child": {
                                "split_index": 4,
                                "split_feature": 6,
                                "split_gain": 0.40213900804519653,
                                "threshold": 0.19960609448489594,
                                "decision_type": "<=",
                                "default_left": true,
                                "missing_type": "None",
                                "internal_value": 0.00259801,
                                "internal_weight": 122,
                                "internal_count": 122,
                                "left_child": {
                                    "leaf_index": 3,
                                    "leaf_value": 0.00839878038968891,
                                    "leaf_weight": 24,
                                    "leaf_count": 24
                                },
                                "right_child": {
                                    "split_index": 14,
                                    "split_feature": 5,
                                    "split_gain": 0.34487101435661316,
                                    "threshold": 0.5742542105551722,
                                    "decision_type": "<=",
                                    "default_left": true,
                                    "missing_type": "None",
                                    "internal_value": 0.00117741,
                                    "internal_weight": 98,
                                    "internal_count": 98,
                                    "left_child": {
                                        "split_index": 15,
                                        "split_feature": 4,
                                        "split_gain": 0.47643399238586426,
                                        "threshold": 0.4905313363170746,
                                        "decision_type": "<=",
                                        "default_left": true,
                                        "missing_type": "None",
                                        "internal_value": 0.00374613,
                                        "internal_weight": 56,
                                        "internal_count": 56,
                                        "left_child": {
                                            "leaf_index": 5,
                                            "leaf_value": 0.00017378353380731175,
                                            "leaf_weight": 35,
                                            "leaf_count": 35
                                        },
                                        "right_child": {
                                            "leaf_index": 16,
                                            "leaf_value": 0.009700030518607015,
                                            "leaf_weight": 21,
                                            "leaf_count": 21
                                        }
                                    },
                                    "right_child": {
                                        "split_index": 23,
                                        "split_feature": 6,
                                        "split_gain": 0.1691810041666031,
                                        "threshold": 0.5558029429149057,
                                        "decision_type": "<=",
                                        "default_left": true,
                                        "missing_type": "None",
                                        "internal_value": -0.00224754,
                                        "internal_weight": 42,
                                        "internal_count": 42,
                                        "left_child": {
                                            "leaf_index": 15,
                                            "leaf_value": -0.005575798227218911,
                                            "leaf_weight": 20,
                                            "leaf_count": 20
                                        },
                                        "right_child": {
                                            "leaf_index": 24,
                                            "leaf_value": 0.0007781473157758063,
                                            "leaf_weight": 22,
                                            "leaf_count": 22
                                        }
                                    }
                                }
                            },
                            "right_child": {
                                "split_index": 11,
                                "split_feature": 1,
                                "split_gain": 0.3669080138206482,
                                "threshold": 0.5070824623827935,
                                "decision_type": "<=",
                                "default_left": true,
                                "missing_type": "None",
                                "internal_value": -0.00318973,
                                "internal_weight": 42,
                                "internal_count": 42,
                                "left_child": {
                                    "leaf_index": 4,
                                    "leaf_value": 0.001483571298775219,
                                    "leaf_weight": 21,
                                    "leaf_count": 21
                                },
                                "right_child": {
                                    "leaf_index": 12,
                                    "leaf_value": -0.007863029092550279,
                                    "leaf_weight": 21,
                                    "leaf_count": 21
                                }
                            }
                        }
                    }
                },
                "right_child": {
                    "split_index": 5,
                    "split_feature": 7,
                    "split_gain": 0.3884109854698181,
                    "threshold": 0.45914323540105606,
                    "decision_type": "<=",
                    "default_left": true,
                    "missing_type": "None",
                    "internal_value": 0.00231432,
                    "internal_weight": 244,
                    "internal_count": 244,
                    "left_child": {
                        "split_index": 8,
                        "split_feature": 0,
                        "split_gain": 0.37810400128364563,
                        "threshold": 0.6480469963430243,
                        "decision_type": "<=",
                        "default_left": true,
                        "missing_type": "None",
                        "internal_value": 0.000130655,
                        "internal_weight": 111,
                        "internal_count": 111,
                        "left_child": {
                            "split_index": 9,
                            "split_feature": 7,
                            "split_gain": 0.4479460120201111,
                            "threshold": 0.32883513751607446,
                            "decision_type": "<=",
                            "default_left": true,
                            "missing_type": "None",
                            "internal_value": 0.0024074,
                            "internal_weight": 69,
                            "internal_count": 69,
                            "left_child": {
                                "split_index": 24,
                                "split_feature": 5,
                                "split_gain": 0.10125000029802322,
                                "threshold": 0.5602812157254015,
                                "decision_type": "<=",
                                "default_left": true,
                                "missing_type": "None",
                                "internal_value": 0.00573664,
                                "internal_weight": 41,
                                "internal_count": 41,
                                "left_child": {
                                    "leaf_index": 1,
                                    "leaf_value": 0.0033118145274264477,
                                    "leaf_weight": 21,
                                    "leaf_count": 21
                                },
                                "right_child": {
                                    "leaf_index": 25,
                                    "leaf_value": 0.008282711843494326,
                                    "leaf_weight": 20,
                                    "leaf_count": 20
                                }
                            },
                            "right_child": {
                                "leaf_index": 10,
                                "leaf_value": -0.002467562077384043,
                                "leaf_weight": 28,
                                "leaf_count": 28
                            }
                        },
                        "right_child": {
                            "split_index": 10,
                            "split_feature": 8,
                            "split_gain": 0.41524600982666016,
                            "threshold": 0.47843376784104197,
                            "decision_type": "<=",
                            "default_left": true,
                            "missing_type": "None",
                            "internal_value": -0.00360971,
                            "internal_weight": 42,
                            "internal_count": 42,
                            "left_child": {
                                "leaf_index": 9,
                                "leaf_value": 0.0013619132517349152,
                                "leaf_weight": 21,
                                "leaf_count": 21
                            },
                            "right_child": {
                                "leaf_index": 11,
                                "leaf_value": -0.008581334411255307,
                                "leaf_weight": 21,
                                "leaf_count": 21
                            }
                        }
                    },
                    "right_child": {
                        "split_index": 6,
                        "split_feature": 4,
                        "split_gain": 0.40035998821258545,
                        "threshold": 0.7911108155543688,
                        "decision_type": "<=",
                        "default_left": true,
                        "missing_type": "None",
                        "internal_value": 0.00413677,
                        "internal_weight": 133,
                        "internal_count": 133,
                        "left_child": {
                            "split_index": 7,
                            "split_feature": 7,
                            "split_gain": 0.5063740015029907,
                            "threshold": 0.8986397336195948,
                            "decision_type": "<=",
                            "default_left": true,
                            "missing_type": "None",
                            "internal_value": 0.00268816,
                            "internal_weight": 104,
                            "internal_count": 104,
                            "left_child": {
                                "split_index": 12,
                                "split_feature": 4,
                                "split_gain": 0.3638150095939636,
                                "threshold": 0.2717914537015004,
                                "decision_type": "<=",
                                "default_left": true,
                                "missing_type": "None",
                                "internal_value": 0.00449531,
                                "internal_weight": 82,
                                "internal_count": 82,
                                "left_child": {
                                    "leaf_index": 6,
                                    "leaf_value": 0.009120405237523041,
                                    "leaf_weight": 28,
                                    "leaf_count": 28
                                },
                                "right_child": {
                                    "split_index": 13,
                                    "split_feature": 8,
                                    "split_gain": 0.5013070106506348,
                                    "threshold": 0.4705057388581787,
                                    "decision_type": "<=",
                                    "default_left": true,
                                    "missing_type": "None",
                                    "internal_value": 0.00209711,
                                    "internal_weight": 54,
                                    "internal_count": 54,
                                    "left_child": {
                                        "leaf_index": 13,
                                        "leaf_value": 0.0074832747612769415,
                                        "leaf_weight": 24,
                                        "leaf_count": 24
                                    },
                                    "right_child": {
                                        "leaf_index": 14,
                                        "leaf_value": -0.0022118282131850723,
                                        "leaf_weight": 30,
                                        "leaf_count": 30
                                    }
                                }
                            },
                            "right_child": {
                                "leaf_index": 8,
                                "leaf_value": -0.004047573975880038,
                                "leaf_weight": 22,
                                "leaf_count": 22
                            }
                        },
                        "right_child": {
                            "leaf_index": 7,
                            "leaf_value": 0.009331790721977274,
                            "leaf_weight": 29,
                            "leaf_count": 29
                        }
                    }
                }
            }
        },
        {
            "tree_index": 4,
            "num_leaves": 25,
            "num_cat": 0,
            "shrinkage": 0.05,
            "tree_structure": {
                "split_index": 0,
                "split_feature": 2,
                "split_gain": 0.5707359910011292,
                "threshold": 0.633946699816291,
                "decision_type": "<=",
                "default_left": true,
                "missing_type": "None",
                "internal_value": 0,
                "internal_weight": 0,
