{
    "name": "tree",
    "version": "v4",
    "num_class": 1,
    "num_tree_per_iteration": 1,
    "label_index": 0,
    "max_feature_idx": 4,
    "objective": "regression",
    "average_output": false,
    "feature_names": [
        "Column_0",
        "Column_1",
        "Column_2",
        "Column_3",
        "Column_4"
    ],
    "monotone_constraints": [],
    "feature_infos": {
        "Column_0": {
            "min_value": 0.00013469300448532007,
            "max_value": 0.9997176732861306,
            "values": []
        },
        "Column_1": {
            "min_value": 1.1634755366141114e-05,
            "max_value": 0.9983475113929496,
            "values": []
        },
        "Column_2": {
            "min_value": 0.001353625715468154,
            "max_value": 0.9966968538529769,
            "values": []
        },
        "Column_3": {
            "min_value": -1,
            "max_value": 2,
            "values": [
                -1,
                1,
                2,
                0
            ]
        },
        "Column_4": {
            "min_value": -1,
            "max_value": 2,
            "values": [
                -1,
                2,
                1,
                0
            ]
        }
    },
    "tree_info": [
        {
            "tree_index": 0,
            "num_leaves": 25,
            "num_cat": 2,
            "shrinkage": 1,
            "tree_structure": {
                "split_index": 0,
                "split_feature": 1,
                "split_gain": 1.0479999780654907,
                "threshold": 0.6388387594920623,
                "decision_type": "<=",
                "default_left": true,
                "missing_type": "None",
                "internal_value": 0.4861,
                "internal_weight": 0,
                "internal_count": 647,
                "left_child": {
                    "split_index": 7,
                    "split_feature": 2,
                    "split_gain": 0.32554298639297485,
                    "threshold": 0.8685335520436867,
                    "decision_type": "<=",
                    "default_left": true,
                    "missing_type": "None",
                    "internal_value": 0.484736,
                    "internal_weight": 417,
                    "internal_count": 417,
                    "left_child": {
                        "split_index": 8,
                        "split_feature": 2,
                        "split_gain": 0.45285600423812866,
                        "threshold": 0.4472339553149401,
                        "decision_type": "<=",
                        "default_left": true,
                        "missing_type": "None",
                        "internal_value": 0.484181,
                        "internal_weight": 360,
                        "internal_count": 360,
                        "left_child": {
                            "split_index": 9,
                            "split_feature": 2,
                            "split_gain": 0.5513460040092468,
                            "threshold": 0.3789706737198865,
                            "decision_type": "<=",
                            "default_left": true,
                            "missing_type": "None",
                            "internal_value": 0.485839,
                            "internal_weight": 192,
                            "internal_count": 192,
                            "left_child": {
                                "split_index": 17,
                                "split_feature": 0,
                                "split_gain": 0.1593949943780899,
                                "threshold": 0.22607716453283586,
                                "decision_type": "<=",
                                "default_left": true,
                                "missing_type": "None",
                                "internal_value": 0.484641,
                                "internal_weight": 160,
                                "internal_count": 160,
                                "left_child": {
                                    "leaf_index": 0,
                                    "leaf_value": 0.48128696294387013,
                                    "leaf_weight": 29,
                                    "leaf_count": 29
                                },
                                "right_child": {
                                    "split_index": 18,
                                    "split_feature": 3,
                                    "split_gain": 0.33451899886131287,
                                    "threshold": "2",
                                    "decision_type": "==",
                                    "default_left": false,
                                    "missing_type": "None",
                                    "internal_value": 0.485384,
                                    "internal_weight": 131,
                                    "internal_count": 131,
                                    "left_child": {
                                        "split_index": 19,
                                        "split_feature": 1,
                                        "split_gain": 0.45983898639678955,
                                        "threshold": 0.3162131273530287,
                                        "decision_type": "<=",
                                        "default_left": true,
                                        "missing_type": "None",
                                        "internal_value": 0.482006,
                                        "internal_weight": 47,
                                        "internal_count": 47,
                                        "left_child": {
                                            "leaf_index": 18,
                                            "leaf_value": 0.4875088579726261,
                                            "leaf_weight": 21,
                                            "leaf_count": 21
                                        },
                                        "right_child": {
                                            "leaf_index": 20,
                                            "leaf_value": 0.47756109380051315,
                                            "leaf_weight": 26,
                                            "leaf_count": 26
                                        }
                                    },
                                    "right_child": {
                                        "split_index": 20,
                                        "split_feature": 4,
                                        "split_gain": 0.12411600351333618,
                                        "threshold": "2",
                                        "decision_type": "==",
                                        "default_left": false,
                                        "missing_type": "None",
                                        "internal_value": 0.487274,
                                        "internal_weight": 84,
                                        "internal_count": 84,
                                        "left_child": {
                                            "leaf_index": 19,
                                            "leaf_value": 0.48488430690554774,
                                            "leaf_weight": 33,
                                            "leaf_count": 33
                                        },
                                        "right_child": {
                                            "split_index": 21,
                                            "split_feature": 0,
                                            "split_gain": 0.20275799930095673,
                                            "threshold": 0.6992202965642019,
                                            "decision_type": "<=",
                                            "default_left": true,
                                            "missing_type": "None",
                                            "internal_value": 0.48882,
                                            "internal_weight": 51,
                                            "internal_count": 51,
                                            "left_child": {
                                                "leaf_index": 21,
                                                "leaf_value": 0.4862873852030081,
                                                "leaf_weight": 31,
                                                "leaf_count": 31
                                            },
                                            "right_child": {
                                                "leaf_index": 22,
                                                "leaf_value": 0.4927446386701194,
                                                "leaf_weight": 20,
                                                "leaf_count": 20
                                            }
                                        }
                                    }
                                }
                            },
                            "right_child": {
                                "leaf_index": 10,
                                "leaf_value": 0.4918306116054009,
                                "leaf_weight": 32,
                                "leaf_count": 32
                            }
                        },
                        "right_child": {
                            "split_index": 11,
                            "split_feature": 2,
                            "split_gain": 0.18265999853610992,
                            "threshold": 0.5936108632936623,
                            "decision_type": "<=",
                            "default_left": true,
                            "missing_type": "None",
                            "internal_value": 0.482285,
                            "internal_weight": 168,
                            "internal_count": 168,
                            "left_child": {
                                "split_index": 12,
                                "split_feature": 2,
                                "split_gain": 0.2901189923286438,
                                "threshold": 0.5185838547449045,
                                "decision_type": "<=",
                                "default_left": true,
                                "missing_type": "None",
                                "internal_value": 0.480014,
                                "internal_weight": 58,
                                "internal_count": 58,
                                "left_child": {
                                    "leaf_index": 9,
                                    "leaf_value": 0.4825797145198847,
                                    "leaf_weight": 38,
                                    "leaf_count": 38
                                },
                                "right_child": {
                                    "leaf_index": 13,
                                    "leaf_value": 0.47513984874996823,
                                    "leaf_weight": 20,
                                    "leaf_count": 20
                                }
                            },
                            "right_child": {
                                "split_index": 13,
                                "split_feature": 2,
                                "split_gain": 0.22062000632286072,
                                "threshold": 0.7545019161715313,
                                "decision_type": "<=",
                                "default_left": true,
                                "missing_type": "None",
                                "internal_value": 0.483482,
                                "internal_weight": 110,
                                "internal_count": 110,
                                "left_child": {
                                    "split_index": 14,
                                    "split_feature": 1,
                                    "split_gain": 0.20240400731563568,
                                    "threshold": 0.320124102089976,
                                    "decision_type": "<=",
                                    "default_left": true,
                                    "missing_type": "None",
                                    "internal_value": 0.485109,
                                    "internal_weight": 72,
                                    "internal_count": 72,
                                    "left_child": {
                                        "leaf_index": 12,
                                        "leaf_value": 0.48197191789610466,
                                        "leaf_weight": 30,
                                        "leaf_count": 30
                                    },
                                    "right_child": {
                                        "split_index": 15,
                                        "split_feature": 1,
                                        "split_gain": 0.3556309938430786,
                                        "threshold": 0.5189114509364575,
                                        "decision_type": "<=",
                                        "default_left": true,
                                        "missing_type": "None",
                                        "internal_value": 0.487349,
                                        "internal_weight": 42,
                                        "internal_count": 42,
                                        "left_child": {
                                            "leaf_index": 15,
                                            "leaf_value": 0.4917359841639832,
                                            "leaf_weight": 22,
                                            "leaf_count": 22
                                        },
                                        "right_child": {
                                            "leaf_index": 16,
                                            "leaf_value": 0.48252368618908803,
                                            "leaf_weight": 20,
                                            "leaf_count": 20
                                        }
                                    }
                                },
                                "right_child": {
                                    "leaf_index": 14,
                                    "leaf_value": 0.48039962952322396,
                                    "leaf_weight": 38,
                                    "leaf_count": 38
                                }
                            }
                        }
                    },
                    "right_child": {
                        "split_index": 10,
                        "split_feature": 0,
                        "split_gain": 0.2879840135574341,
                        "threshold": 0.43331671089299945,
                        "decision_type": "<=",
                        "default_left": true,
                        "missing_type": "None",
                        "internal_value": 0.488247,
                        "internal_weight": 57,
                        "internal_count": 57,
                        "left_child": {
                            "leaf_index": 8,
                            "leaf_value": 0.49308129814860874,
                            "leaf_weight": 20,
                            "leaf_count": 20
                        },
                        "right_child": {
                            "leaf_index": 11,
                            "leaf_value": 0.48563439901211813,
                            "leaf_weight": 37,
                            "leaf_count": 37
                        }
                    }
                },
                "right_child": {
                    "split_index": 1,
                    "split_feature": 2,
                    "split_gain": 0.40134701132774353,
                    "threshold": 0.7811746892943988,
                    "decision_type": "<=",
                    "default_left": true,
                    "missing_type": "None",
                    "internal_value": 0.488941,
                    "internal_weight": 230,
                    "internal_count": 230,
                    "left_child": {
                        "split_index": 3,
                        "split_feature": 2,
                        "split_gain": 0.4321799874305725,
                        "threshold": 0.22593852160235192,
                        "decision_type": "<=",
                        "default_left": true,
                        "missing_type": "None",
                        "internal_value": 0.487784,
                        "internal_weight": 176,
                        "internal_count": 176,
                        "left_child": {
                            "split_index": 4,
                            "split_feature": 1,
                            "split_gain": 0.5555379986763,
                            "threshold": 0.8924303628130635,
                            "decision_type": "<=",
                            "default_left": true,
                            "missing_type": "None",
                            "internal_value": 0.491186,
                            "internal_weight": 61,
                            "internal_count": 61,
                            "left_child": {
                                "split_index": 16,
                                "split_feature": 1,
                                "split_gain": 0.1613609939813614,
                                "threshold": 0.7619523750526668,
                                "decision_type": "<=",
                                "default_left": true,
                                "missing_type": "None",
                                "internal_value": 0.494518,
                                "internal_weight": 41,
                                "internal_count": 41,
                                "left_child": {
                                    "leaf_index": 1,
                                    "leaf_value": 0.49130398211244025,
                                    "leaf_weight": 20,
                                    "leaf_count": 20
                                },
                                "right_child": {
                                    "leaf_index": 17,
                                    "leaf_value": 0.4975793148918421,
                                    "leaf_weight": 21,
                                    "leaf_count": 21
                                }
                            },
                            "right_child": {
                                "leaf_index": 5,
                                "leaf_value": 0.48435370159684676,
                                "leaf_weight": 20,
                                "leaf_count": 20
                            }
                        },
                        "right_child": {
                            "split_index": 5,
                            "split_feature": 2,
                            "split_gain": 0.44999998807907104,
                            "threshold": 0.44467450210243425,
                            "decision_type": "<=",
                            "default_left": true,
                            "missing_type": "None",
                            "internal_value": 0.485979,
                            "internal_weight": 115,
                            "internal_count": 115,
                            "left_child": {
                                "split_index": 23,
                                "split_feature": 0,
                                "split_gain": 0.05527849867939949,
                                "threshold": 0.5026580581670269,
                                "decision_type": "<=",
                                "default_left": true,
                                "missing_type": "None",
                                "internal_value": 0.481777,
                                "internal_weight": 41,
                                "internal_count": 41,
                                "left_child": {
                                    "leaf_index": 4,
                                    "leaf_value": 0.4836583869642345,
                                    "leaf_weight": 20,
                                    "leaf_count": 20
                                },
                                "right_child": {
                                    "leaf_index": 24,
                                    "leaf_value": 0.4799854329133883,
                                    "leaf_weight": 21,
                                    "leaf_count": 21
                                }
                            },
                            "right_child": {
                                "split_index": 6,
                                "split_feature": 2,
                                "split_gain": 0.4437060058116913,
                                "threshold": 0.6689217414312548,
                                "decision_type": "<=",
                                "default_left": true,
                                "missing_type": "None",
                                "internal_value": 0.488307,
                                "internal_weight": 74,
                                "internal_count": 74,
                                "left_child": {
                                    "split_index": 22,
                                    "split_feature": 0,
                                    "split_gain": 0.10586299747228622,
                                    "threshold": 0.6159177741561979,
                                    "decision_type": "<=",
                                    "default_left": true,
                                    "missing_type": "None",
                                    "internal_value": 0.490826,
                                    "internal_weight": 52,
                                    "internal_count": 52,
                                    "left_child": {
                                        "leaf_index": 6,
                                        "leaf_value": 0.4929141638506137,
                                        "leaf_weight": 28,
                                        "leaf_count": 28
                                    },
                                    "right_child": {
                                        "leaf_index": 23,
                                        "leaf_value": 0.48838873709299757,
                                        "leaf_weight": 24,
                                        "leaf_count": 24
                                    }
                                },
                                "right_child": {
                                    "leaf_index": 7,
                                    "leaf_value": 0.48235478091058953,
                                    "leaf_weight": 22,
                                    "leaf_count": 22
                                }
                            }
                        }
                    },
                    "right_child": {
                        "split_index": 2,
                        "split_feature": 0,
                        "split_gain": 0.4957039952278137,
                        "threshold": 0.44660415673139575,
                        "decision_type": "<=",
                        "default_left": true,
                        "missing_type": "None",
                        "internal_value": 0.492711,
                        "internal_weight": 54,
                        "internal_count": 54,
                        "left_child": {
                            "leaf_index": 2,
                            "leaf_value": 0.4978708251322387,
                            "leaf_weight": 25,
                            "leaf_count": 25
                        },
                        "right_child": {
                            "leaf_index": 3,
                            "leaf_value": 0.4882633523936664,
                            "leaf_weight": 29,
                            "leaf_count": 29
                        }
                    }
                }
            }
        },
        {
            "tree_index": 1,
            "num_leaves": 26,
            "num_cat": 4,
            "shrinkage": 0.05,
            "tree_structure": {
                "split_index": 0,
                "split_feature": 1,
                "split_gain": 0.9458240270614624,
                "threshold": 0.6388387594920623,
                "decision_type": "<=",
                "default_left": true,
                "missing_type": "None",
                "internal_value": 0,
                "internal_weight": 0,
                "internal_count": 647,
                "left_child": {
                    "split_index": 7,
                    "split_feature": 2,
                    "split_gain": 0.2981809973716736,
                    "threshold": 0.8498113810790368,
                    "decision_type": "<=",
                    "default_left": true,
                    "missing_type": "None",
                    "internal_value": -0.00129495,
                    "internal_weight": 417,
                    "internal_count": 417,
                    "left_child": {
                        "split_index": 8,
                        "split_feature": 2,
                        "split_gain": 0.4403330087661743,
                        "threshold": 0.4472339553149401,
                        "decision_type": "<=",
                        "default_left": true,
                        "missing_type": "None",
                        "internal_value": -0.00186425,
                        "internal_weight": 353,
                        "internal_count": 353,
                        "left_child": {
                            "split_index": 9,
                            "split_feature": 2,
                            "split_gain": 0.49759000539779663,
                            "threshold": 0.3789706737198865,
                            "decision_type": "<=",
                            "default_left": true,
                            "missing_type": "None",
                            "internal_value": -0.000247158,
                            "internal_weight": 192,
                            "internal_count": 192,
                            "left_child": {
                                "split_index": 16,
                                "split_feature": 0,
                                "split_gain": 0.14385400712490082,
                                "threshold": 0.22607716453283586,
                                "decision_type": "<=",
                                "default_left": true,
                                "missing_type": "None",
                                "internal_value": -0.00138549,
                                "internal_weight": 160,
                                "internal_count": 160,
                                "left_child": {
                                    "leaf_index": 0,
                                    "leaf_value": -0.004571948768892165,
                                    "leaf_weight": 29,
                                    "leaf_count": 29
                                },
                                "right_child": {
                                    "split_index": 17,
                                    "split_feature": 3,
                                    "split_gain": 0.30190300941467285,
                                    "threshold": "2",
                                    "decision_type": "==",
                                    "default_left": false,
                                    "missing_type": "None",
                                    "internal_value": -0.000680095,
                                    "internal_weight": 131,
                                    "internal_count": 131,
                                    "left_child": {
                                        "split_index": 18,
                                        "split_feature": 1,
                                        "split_gain": 0.41500499844551086,
                                        "threshold": 0.3162131273530287,
                                        "decision_type": "<=",
                                        "default_left": true,
                                        "missing_type": "None",
                                        "internal_value": -0.00388902,
                                        "internal_weight": 47,
                                        "internal_count": 47,
                                        "left_child": {
                                            "leaf_index": 17,
                                            "leaf_value": 0.001338851456308649,
                                            "leaf_weight": 21,
                                            "leaf_count": 21
                                        },
                                        "right_child": {
                                            "leaf_index": 19,
                                            "leaf_value": -0.008111524281020348,
                                            "leaf_weight": 26,
                                            "leaf_count": 26
                                        }
                                    },
                                    "right_child": {
                                        "split_index": 20,
                                        "split_feature": 4,
                                        "split_gain": 0.112015001475811,
                                        "threshold": "2",
                                        "decision_type": "==",
                                        "default_left": false,
                                        "missing_type": "None",
                                        "internal_value": 0.00111537,
                                        "internal_weight": 84,
                                        "internal_count": 84,
                                        "left_child": {
                                            "leaf_index": 18,
                                            "leaf_value": -0.0011544721146382279,
                                            "leaf_weight": 33,
                                            "leaf_count": 33
                                        },
                                        "right_child": {
                                            "split_index": 21,
                                            "split_feature": 3,
                                            "split_gain": 0.18999899923801422,
                                            "threshold": "1",
                                            "decision_type": "==",
                                            "default_left": false,
                                            "missing_type": "None",
                                            "internal_value": 0.0025841,
                                            "internal_weight": 51,
                                            "internal_count": 51,
                                            "left_child": {
                                                "leaf_index": 21,
                                                "leaf_value": 0.005576666444540024,
                                                "leaf_weight": 26,
                                                "leaf_count": 26
                                            },
                                            "right_child": {
                                                "leaf_index": 22,
                                                "leaf_value": -0.0005281771719455719,
                                                "leaf_weight": 25,
                                                "leaf_count": 25
                                            }
                                        }
                                    }
                                }
                            },
                            "right_child": {
                                "leaf_index": 10,
                                "leaf_value": 0.005444517463911325,
                                "leaf_weight": 32,
                                "leaf_count": 32
                            }
                        },
                        "right_child": {
                            "split_index": 12,
                            "split_feature": 1,
                            "split_gain": 0.2423900067806244,
                            "threshold": 0.24650283410856574,
                            "decision_type": "<=",
                            "default_left": true,
                            "missing_type": "None",
                            "internal_value": -0.00379272,
                            "internal_weight": 161,
                            "internal_count": 161,
                            "left_child": {
                                "split_index": 15,
                                "split_feature": 0,
                                "split_gain": 0.17442099750041962,
                                "threshold": 0.4822456117989527,
                                "decision_type": "<=",
                                "default_left": true,
                                "missing_type": "None",
                                "internal_value": -0.00644925,
                                "internal_weight": 56,
                                "internal_count": 56,
                                "left_child": {
                                    "leaf_index": 9,
                                    "leaf_value": -0.0034518172821173306,
                                    "leaf_weight": 26,
                                    "leaf_count": 26
                                },
                                "right_child": {
                                    "leaf_index": 16,
                                    "leaf_value": -0.009047022856151065,
                                    "leaf_weight": 30,
                                    "leaf_count": 30
                                }
                            },
                            "right_child": {
                                "split_index": 13,
                                "split_feature": 0,
                                "split_gain": 0.3145360052585602,
                                "threshold": 0.38004647856883833,
                                "decision_type": "<=",
                                "default_left": true,
                                "missing_type": "None",
                                "internal_value": -0.0023759,
                                "internal_weight": 105,
                                "internal_count": 105,
                                "left_child": {
                                    "leaf_index": 13,
                                    "leaf_value": -0.005935900832693547,
                                    "leaf_weight": 39,
                                    "leaf_count": 39
                                },
                                "right_child": {
                                    "split_index": 23,
                                    "split_feature": 1,
                                    "split_gain": 0.07148359715938568,
                                    "threshold": 0.34684613242757495,
                                    "decision_type": "<=",
                                    "default_left": true,
                                    "missing_type": "None",
                                    "internal_value": -0.000272263,
                                    "internal_weight": 66,
                                    "internal_count": 66,
                                    "left_child": {
                                        "leaf_index": 14,
                                        "leaf_value": 0.0022232815937604754,
                                        "leaf_weight": 20,
                                        "leaf_count": 20
                                    },
                                    "right_child": {
                                        "split_index": 24,
                                        "split_feature": 0,
                                        "split_gain": 0.0750935971736908,
                                        "threshold": 0.7548400648791508,
                                        "decision_type": "<=",
                                        "default_left": true,
                                        "missing_type": "None",
                                        "internal_value": -0.00135728,
                                        "internal_weight": 46,
                                        "internal_count": 46,
                                        "left_child": {
                                            "leaf_index": 24,
                                            "leaf_value": 0.0004145438272434359,
                                            "leaf_weight": 26,
                                            "leaf_count": 26
                                        },
                                        "right_child": {
                                            "leaf_index": 25,
                                            "leaf_value": -0.003660655412822962,
                                            "leaf_weight": 20,
                                            "leaf_count": 20
                                        }
                                    }
                                }
                            }
                        }
                    },
                    "right_child": {
                        "split_index": 10,
                        "split_feature": 0,
                        "split_gain": 0.38997599482536316,
                        "threshold": 0.7063589768216988,
                        "decision_type": "<=",
                        "default_left": true,
                        "missing_type": "None",
                        "internal_value": 0.00184512,
                        "internal_weight": 64,
                        "internal_count": 64,
                        "left_child": {
                            "split_index": 19,
                            "split_feature": 0,
                            "split_gain": 0.11232899874448776,
                            "threshold": 0.43331671089299945,
                            "decision_type": "<=",
                            "default_left": true,
                            "missing_type": "None",
                            "internal_value": 0.0047684,
                            "internal_weight": 41,
                            "internal_count": 41,
                            "left_child": {
                                "leaf_index": 8,
                                "leaf_value": 0.007322457175524462,
                                "leaf_weight": 21,
                                "leaf_count": 21
                            },
                            "right_child": {
                                "leaf_index": 20,
                                "leaf_value": 0.002086647371761501,
                                "leaf_weight": 20,
                                "leaf_count": 20
                            }
                        },
                        "right_child": {
                            "leaf_index": 11,
                            "leaf_value": -0.003365953189685293,
                            "leaf_weight": 23,
                            "leaf_count": 23
                        }
                    }
                },
                "right_child": {
                    "split_index": 1,
                    "split_feature": 1,
                    "split_gain": 0.3819659948348999,
                    "threshold": 0.7911468117154313,
                    "decision_type": "<=",
                    "default_left": true,
                    "missing_type": "None",
                    "internal_value": 0.00269893,
                    "internal_weight": 230,
                    "internal_count": 230,
                    "left_child": {
                        "split_index": 5,
                        "split_feature": 1,
                        "split_gain": 0.3004800081253052,
                        "threshold": 0.7489557610632916,
                        "decision_type": "<=",
                        "default_left": true,
                        "missing_type": "None",
                        "internal_value": 0.00541061,
                        "internal_weight": 83,
                        "internal_count": 83,
                        "left_child": {
                            "split_index": 6,
                            "split_feature": 0,
                            "split_gain": 0.3063029944896698,
                            "threshold": 0.29045367534097893,
                            "decision_type": "<=",
                            "default_left": true,
                            "missing_type": "None",
                            "internal_value": 0.00371556,
                            "internal_weight": 63,
                            "internal_count": 63,
                            "left_child": {
                                "leaf_index": 1,
                                "leaf_value": 0.008646049186409939,
                                "leaf_weight": 21,
                                "leaf_count": 21
                            },
                            "right_child": {
                                "split_index": 11,
                                "split_feature": 0,
                                "split_gain": 0.24591700732707977,
                                "threshold": 0.7052230912795352,
                                "decision_type": "<=",
                                "default_left": true,
                                "missing_type": "None",
                                "internal_value": 0.00125031,
                                "internal_weight": 42,
                                "internal_count": 42,
                                "left_child": {
                                    "leaf_index": 7,
                                    "leaf_value": -0.002397587864172899,
                                    "leaf_weight": 22,
                                    "leaf_count": 22
                                },
                                "right_child": {
                                    "leaf_index": 12,
                                    "leaf_value": 0.00526300388853997,
                                    "leaf_weight": 20,
                                    "leaf_count": 20
                                }
                            }
                        },
                        "right_child": {
                            "leaf_index": 6,
                            "leaf_value": 0.010750028365509935,
                            "leaf_weight": 20,
                            "leaf_count": 20
                        }
                    },
                    "right_child": {
                        "split_index": 2,
                        "split_feature": 4,
                        "split_gain": 0.4318310022354126,
                        "threshold": "1",
                        "decision_type": "==",
                        "default_left": false,
                        "missing_type": "None",
                        "internal_value": 0.00116785,
                        "internal_weight": 147,
                        "internal_count": 147,
                        "left_child": {
                            "split_index": 14,
                            "split_feature": 1,
                            "split_gain": 0.19014599919319153,
                            "threshold": 0.8692597650088697,
                            "decision_type": "<=",
                            "default_left": true,
                            "missing_type": "None",
                            "internal_value": -0.00244121,
                            "internal_weight": 53,
                            "internal_count": 53,
                            "left_child": {
                                "leaf_index": 2,
                                "leaf_value": -0.006288172104395926,
                                "leaf_weight": 20,
                                "leaf_count": 20
                            },
                            "right_child": {
                                "leaf_index": 15,
                                "leaf_value": -0.00010971546906865005,
                                "leaf_weight": 33,
                                "leaf_count": 33
                            }
                        },
                        "right_child": {
                            "split_index": 3,
                            "split_feature": 1,
                            "split_gain": 0.3614180088043213,
                            "threshold": 0.938901880006336,
                            "decision_type": "<=",
                            "default_left": true,
                            "missing_type": "None",
                            "internal_value": 0.00320275,
                            "internal_weight": 94,
                            "internal_count": 94,
                            "left_child": {
                                "split_index": 4,
                                "split_feature": 1,
                                "split_gain": 0.6450120210647583,
                                "threshold": 0.8782198814563239,
                                "decision_type": "<=",
                                "default_left": true,
                                "missing_type": "None",
                                "internal_value": 0.00138737,
                                "internal_weight": 70,
                                "internal_count": 70,
                                "left_child": {
                                    "split_index": 22,
                                    "split_feature": 2,
                                    "split_gain": 0.11112599819898605,
                                    "threshold": 0.5380487004453186,
                                    "decision_type": "<=",
                                    "default_left": true,
                                    "missing_type": "None",
                                    "internal_value": 0.00485419,
                                    "internal_weight": 46,
                                    "internal_count": 46,
                                    "left_child": {
                                        "leaf_index": 3,
                                        "leaf_value": 0.007535574576329618,
                                        "leaf_weight": 21,
                                        "leaf_count": 21
                                    },
                                    "right_child": {
                                        "leaf_index": 23,
                                        "leaf_value": 0.002601820988580585,
                                        "leaf_weight": 25,
                                        "leaf_count": 25
                                    }
                                },
                                "right_child": {
                                    "leaf_index": 5,
                                    "leaf_value": -0.005257376217438529,
                                    "leaf_weight": 24,
                                    "leaf_count": 24
                                }
                            },
                            "right_child": {
                                "leaf_index": 4,
                                "leaf_value": 0.008497606532182544,
                                "leaf_weight": 24,
                                "leaf_count": 24
                            }
                        }
                    }
                }
            }
        },
        {
            "tree_index": 2,
            "num_leaves": 26,
            "num_cat": 4,
            "shrinkage": 0.05,
            "tree_structure": {
                "split_index": 0,
                "split_feature": 1,
                "split_gain": 0.8543800115585327,
                "threshold": 0.6458698138090428,
                "decision_type": "<=",
                "default_left": true,
                "missing_type": "None",
                "internal_value": 0,
                "internal_weight": 0,
                "internal_count": 647,
                "left_child": {
                    "split_index": 5,
                    "split_feature": 2,
                    "split_gain": 0.3053790032863617,
                    "threshold": 0.8498113810790368,
                    "decision_type": "<=",
                    "default_left": true,
                    "missing_type": "None",
                    "internal_value": -0.00120362,
                    "internal_weight": 423,
                    "internal_count": 423,
                    "left_child": {
                        "split_index": 7,
                        "split_feature": 2,
                        "split_gain": 0.34248098731040955,
                        "threshold": 0.4472339553149401,
                        "decision_type": "<=",
                        "default_left": true,
                        "missing_type": "None",
                        "internal_value": -0.00177606,
                        "internal_weight": 358,
                        "internal_count": 358,
                        "left_child": {
                            "split_index": 8,
                            "split_feature": 2,
                            "split_gain": 0.46903398633003235,
                            "threshold": 0.3789706737198865,
                            "decision_type": "<=",
                            "default_left": true,
                            "missing_type": "None",
                            "internal_value": -0.000362149,
                            "internal_weight": 195,
                            "internal_count": 195,
                            "left_child": {
                                "split_index": 15,
                                "split_feature": 2,
                                "split_gain": 0.13751399517059326,
                                "threshold": 0.07402369550489175,
                                "decision_type": "<=",
                                "default_left": true,
                                "missing_type": "None",
                                "internal_value": -0.00144867,
                                "internal_weight": 163,
                                "internal_count": 163,
                                "left_child": {
                                    "leaf_index": 0,
                                    "leaf_value": 0.0011409048289538193,
                                    "leaf_weight": 39,
                                    "leaf_count": 39
                                },
                                "right_child": {
                                    "split_index": 16,
                                    "split_feature": 1,
                                    "split_gain": 0.12133099883794785,
                                    "threshold": 0.35233653941996845,
                                    "decision_type": "<=",
                                    "default_left": true,
                                    "missing_type": "None",
                                    "internal_value": -0.00226313,
                                    "internal_weight": 124,
                                    "internal_count": 124,
                                    "left_child": {
                                        "split_index": 19,
                                        "split_feature": 4,
                                        "split_gain": 0.13213999569416046,
                                        "threshold": "2",
                                        "decision_type": "==",
                                        "default_left": false,
                                        "missing_type": "None",
                                        "internal_value": -0.000621494,
                                        "internal_weight": 59,
                                        "internal_count": 59,
                                        "left_child": {
                                            "leaf_index": 16,
                                            "leaf_value": 0.002447175746254454,
                                            "leaf_weight": 22,
                                            "leaf_count": 22
                                        },
                                        "right_child": {
                                            "leaf_index": 20,
                                            "leaf_value": -0.0024461080647400907,
                                            "leaf_weight": 37,
                                            "leaf_count": 37
                                        }
                                    },
                                    "right_child": {
                                        "split_index": 17,
                                        "split_feature": 3,
                                        "split_gain": 0.22013700008392334,
                                        "threshold": "2",
                                        "decision_type": "==",
                                        "default_left": false,
                                        "missing_type": "None",
                                        "internal_value": -0.00375322,
                                        "internal_weight": 65,
                                        "internal_count": 65,
                                        "left_child": {
                                            "leaf_index": 17,
                                            "leaf_value": -0.007821244255385617,
                                            "leaf_weight": 22,
                                            "leaf_count": 22
                                        },
                                        "right_child": {
                                            "split_index": 18,
                                            "split_feature": 4,
                                            "split_gain": 0.26055198907852173,
                                            "threshold": "2",
                                            "decision_type": "==",
                                            "default_left": false,
                                            "missing_type": "None",
                                            "internal_value": -0.00167191,
                                            "internal_weight": 43,
                                            "internal_count": 43,
                                            "left_child": {
                                                "leaf_index": 18,
                                                "leaf_value": -0.005474516283720732,
                                                "leaf_weight": 22,
                                                "leaf_count": 22
                                            },
                                            "right_child": {
                                                "leaf_index": 19,
                                                "leaf_value": 0.0023117677530362494,
                                                "leaf_weight": 21,
                                                "leaf_count": 21
                                            }
                                        }
                                    }
                                }
                            },
                            "right_child": {
                                "leaf_index": 9,
                                "leaf_value": 0.005172291467897595,
                                "leaf_weight": 32,
                                "leaf_count": 32
                            }
                        },
                        "right_child": {
                            "split_index": 11,
                            "split_feature": 1,
                            "split_gain": 0.2413029968738556,
                            "threshold": 0.24650283410856574,
                            "decision_type": "<=",
                            "default_left": true,
                            "missing_type": "None",
                            "internal_value": -0.00346756,
                            "internal_weight": 163,
                            "internal_count": 163,
                            "left_child": {
                                "split_index": 14,
                                "split_feature": 0,
                                "split_gain": 0.1574150025844574,
                                "threshold": 0.4822456117989527,
                                "decision_type": "<=",
                                "default_left": true,
                                "missing_type": "None",
                                "internal_value": -0.00612679,
                                "internal_weight": 56,
                                "internal_count": 56,
                                "left_child": {
                                    "leaf_index": 8,
                                    "leaf_value": -0.0032792262768802736,
                                    "leaf_weight": 26,
                                    "leaf_count": 26
                                },
                                "right_child": {
                                    "leaf_index": 15,
                                    "leaf_value": -0.00859467172374328,
                                    "leaf_weight": 30,
                                    "leaf_count": 30
                                }
                            },
                            "right_child": {
                                "split_index": 12,
                                "split_feature": 0,
                                "split_gain": 0.2374809980392456,
                                "threshold": 0.38004647856883833,
                                "decision_type": "<=",
                                "default_left": true,
                                "missing_type": "None",
                                "internal_value": -0.00207581,
                                "internal_weight": 107,
                                "internal_count": 107,
                                "left_child": {
                                    "split_index": 24,
                                    "split_feature": 1,
                                    "split_gain": 0.05242440104484558,
                                    "threshold": 0.46163680911645455,
                                    "decision_type": "<=",
                                    "default_left": true,
                                    "missing_type": "None",
                                    "internal_value": -0.00512441,
                                    "internal_weight": 40,
                                    "internal_count": 40,
                                    "left_child": {
                                        "leaf_index": 12,
                                        "leaf_value": -0.0033142903028056028,
                                        "leaf_weight": 20,
                                        "leaf_count": 20
                                    },
                                    "right_child": {
                                        "leaf_index": 25,
                                        "leaf_value": -0.006934526329860091,
                                        "leaf_weight": 20,
                                        "leaf_count": 20
                                    }
                                },
                                "right_child": {
                                    "split_index": 22,
                                    "split_feature": 1,
                                    "split_gain": 0.06394139677286148,
                                    "threshold": 0.34684613242757495,
                                    "decision_type": "<=",
                                    "default_left": true,
                                    "missing_type": "None",
                                    "internal_value": -0.000255751,
                                    "internal_weight": 67,
                                    "internal_count": 67,
                                    "left_child": {
                                        "leaf_index": 13,
                                        "leaf_value": 0.0021121174772270024,
                                        "leaf_weight": 20,
                                        "leaf_count": 20
                                    },
                                    "right_child": {
                                        "split_index": 23,
                                        "split_feature": 0,
                                        "split_gain": 0.06827860325574875,
                                        "threshold": 0.7548400648791508,
                                        "decision_type": "<=",
                                        "default_left": true,
                                        "missing_type": "None",
                                        "internal_value": -0.00126336,
                                        "internal_weight": 47,
                                        "internal_count": 47,
                                        "left_child": {
                                            "leaf_index": 23,
                                            "leaf_value": 0.0003768431979955899,
                                            "leaf_weight": 27,
                                            "leaf_count": 27
                                        },
                                        "right_child": {
                                            "leaf_index": 24,
                                            "leaf_value": -0.0034776226850226524,
                                            "leaf_weight": 20,
                                            "leaf_count": 20
                                        }
                                    }
                                }
                            }
                        }
                    },
                    "right_child": {
                        "split_index": 6,
                        "split_feature": 0,
                        "split_gain": 0.3808560073375702,
                        "threshold": 0.43331671089299945,
                        "decision_type": "<=",
                        "default_left": true,
                        "missing_type": "None",
                        "internal_value": 0.00194924,
                        "internal_weight": 65,
                        "internal_count": 65,
                        "left_child": {
                            "leaf_index": 6,
                            "leaf_value": 0.007300011559643528,
                            "leaf_weight": 22,
                            "leaf_count": 22
                        },
                        "right_child": {
                            "split_index": 20,
                            "split_feature": 0,
                            "split_gain": 0.11481600254774094,
                            "threshold": 0.7063589768216988,
                            "decision_type": "<=",
                            "default_left": true,
                            "missing_type": "None",
                            "internal_value": -0.000788367,
                            "internal_weight": 43,
                            "internal_count": 43,
                            "left_child": {
                                "leaf_index": 7,
                                "leaf_value": 0.0019823148800060153,
                                "leaf_weight": 20,
                                "leaf_count": 20
                            },
                            "right_child": {
                                "leaf_index": 21,
                                "leaf_value": -0.0031976555757548502,
                                "leaf_weight": 23,
                                "leaf_count": 23
                            }
                        }
                    }
                },
                "right_child": {
                    "split_index": 1,
                    "split_feature": 1,
                    "split_gain": 0.387935996055603,
                    "threshold": 0.7911468117154313,
                    "decision_type": "<=",
                    "default_left": true,
                    "missing_type": "None",
                    "internal_value": 0.00261541,
                    "internal_weight": 224,
                    "internal_count": 224,
                    "left_child": {
                        "split_index": 9,
                        "split_feature": 0,
                        "split_gain": 0.25410398840904236,
                        "threshold": 0.7123844281901838,
                        "decision_type": "<=",
                        "default_left": true,
                        "missing_type": "None",
                        "internal_value": 0.00549042,
                        "internal_weight": 77,
                        "internal_count": 77,
                        "left_child": {
                            "split_index": 10,
                            "split_feature": 0,
                            "split_gain": 0.3850710093975067,
                            "threshold": 0.29045367534097893,
                            "decision_type": "<=",
                            "default_left": true,
                            "missing_type": "None",
                            "internal_value": 0.00331917,
                            "internal_weight": 49,
                            "internal_count": 49,
                            "left_child": {
                                "leaf_index": 1,
                                "leaf_value": 0.00843730324967986,
                                "leaf_weight": 21,
                                "leaf_count": 21
                            },
                            "right_child": {
                                "leaf_index": 11,
                                "leaf_value": -0.0005194346991109862,
                                "leaf_weight": 28,
                                "leaf_count": 28
                            }
                        },
                        "right_child": {
                            "leaf_index": 10,
                            "leaf_value": 0.009290121247925397,
                            "leaf_weight": 28,
                            "leaf_count": 28
                        }
                    },
                    "right_child": {
                        "split_index": 2,
                        "split_feature": 4,
                        "split_gain": 0.38972699642181396,
                        "threshold": "1",
                        "decision_type": "==",
                        "default_left": false,
                        "missing_type": "None",
                        "internal_value": 0.00110946,
                        "internal_weight": 147,
                        "internal_count": 147,
                        "left_child": {
                            "split_index": 13,
                            "split_feature": 1,
                            "split_gain": 0.17160700261592865,
                            "threshold": 0.8692597650088697,
                            "decision_type": "<=",
                            "default_left": true,
                            "missing_type": "None",
                            "internal_value": -0.00231915,
                            "internal_weight": 53,
                            "internal_count": 53,
                            "left_child": {
                                "leaf_index": 2,
                                "leaf_value": -0.005973763521760702,
                                "leaf_weight": 20,
                                "leaf_count": 20
                            },
                            "right_child": {
                                "leaf_index": 14,
                                "leaf_value": -0.00010422997063759602,
                                "leaf_weight": 33,
                                "leaf_count": 33
                            }
                        },
                        "right_child": {
                            "split_index": 3,
                            "split_feature": 1,
                            "split_gain": 0.32618001103401184,
                            "threshold": 0.938901880006336,
                            "decision_type": "<=",
                            "default_left": true,
                            "missing_type": "None",
                            "internal_value": 0.00304261,
                            "internal_weight": 94,
                            "internal_count": 94,
                            "left_child": {
                                "split_index": 4,
                                "split_feature": 1,
                                "split_gain": 0.5821229815483093,
                                "threshold": 0.8782198814563239,
                                "decision_type": "<=",
                                "default_left": true,
                                "missing_type": "None",
                                "internal_value": 0.001318,
                                "internal_weight": 70,
                                "internal_count": 70,
                                "left_child": {
                                    "split_index": 21,
                                    "split_feature": 2,
                                    "split_gain": 0.10029099881649017,
                                    "threshold": 0.5380487004453186,
                                    "decision_type": "<=",
                                    "default_left": true,
                                    "missing_type": "None",
                                    "internal_value": 0.00461148,
                                    "internal_weight": 46,
                                    "internal_count": 46,
                                    "left_child": {
                                        "leaf_index": 3,
                                        "leaf_value": 0.00715879589053137,
                                        "leaf_weight": 21,
                                        "leaf_count": 21
                                    },
                                    "right_child": {
                                        "leaf_index": 22,
                                        "leaf_value": 0.002471730185672641,
                                        "leaf_weight": 25,
                                        "leaf_count": 25
                                    }
                                },
                                "right_child": {
                                    "leaf_index": 5,
                                    "leaf_value": -0.0049945074201483905,
                                    "leaf_weight": 24,
                                    "leaf_count": 24
                                }
                            },
                            "right_child": {
                                "leaf_index": 4,
                                "leaf_value": 0.008072726354779054,
                                "leaf_weight": 24,
                                "leaf_count": 24
                            }
                        }
                    }
                }
            }
        },
        {
            "tree_index": 3,
            "num_leaves": 26,
            "num_cat": 3,
            "shrinkage": 0.05,
            "tree_structure": {
                "split_index": 0,
                "split_feature": 1,
                "split_gain": 0.7711219787597656,
                "threshold": 0.6388387594920623,
                "decision_type": "<=",
                "default_left": true,
                "missing_type": "None",
                "internal_value": 0,
                "internal_weight": 0,
                "internal_count": 647,
                "left_child": {
                    "split_index": 7,
                    "split_feature": 2,
                    "split_gain": 0.2420099973678589,
                    "threshold": 0.8498113810790368,
                    "decision_type": "<=",
                    "default_left": true,
                    "missing_type": "None",
                    "internal_value": -0.00116931,
                    "internal_weight": 417,
                    "internal_count": 417,
                    "left_child": {
                        "split_index": 8,
                        "split_feature": 2,
                        "split_gain": 0.3661870062351227,
                        "threshold": 0.4846096361605342,
                        "decision_type": "<=",
                        "default_left": true,
                        "missing_type": "None",
                        "internal_value": -0.0016822,
                        "internal_weight": 353,
                        "internal_count": 353,
                        "left_child": {
                            "split_index": 12,
                            "split_feature": 0,
                            "split_gain": 0.26087701320648193,
                            "threshold": 0.11698252856798498,
                            "decision_type": "<=",
                            "default_left": true,
                            "missing_type": "None",
                            "internal_value": -0.000361092,
                            "internal_weight": 211,
                            "internal_count": 211,
                            "left_child": {
                                "leaf_index": 0,
                                "leaf_value": -0.005268607657247534,
                                "leaf_weight": 24,
                                "leaf_count": 24
                            },
                            "right_child": {
                                "split_index": 13,
                                "split_feature": 2,
                                "split_gain": 0.3096959888935089,
                                "threshold": 0.3789706737198865,
                                "decision_type": "<=",
                                "default_left": true,
                                "missing_type": "None",
                                "internal_value": 0.000268749,
                                "internal_weight": 187,
                                "internal_count": 187,
                                "left_child": {
                                    "split_index": 15,
                                    "split_feature": 2,
                                    "split_gain": 0.1588049978017807,
                                    "threshold": 0.08076039840418843,
                                    "decision_type": "<=",
                                    "default_left": true,
                                    "missing_type": "None",
                                    "internal_value": -0.000843161,
                                    "internal_weight": 144,
                                    "internal_count": 144,
                                    "left_child": {
                                        "leaf_index": 13,
                                        "leaf_value": 0.0018813175124635633,
                                        "leaf_weight": 39,
                                        "leaf_count": 39
                                    },
                                    "right_child": {
                                        "split_index": 18,
                                        "split_feature": 1,
                                        "split_gain": 0.11897599697113037,
                                        "threshold": 0.22830597107277525,
                                        "decision_type": "<=",
                                        "default_left": true,
                                        "missing_type": "None",
                                        "internal_value": -0.00185511,
                                        "internal_weight": 105,
                                        "internal_count": 105,
                                        "left_child": {
                                            "leaf_index": 16,
                                            "leaf_value": 0.0005251293602798666,
                                            "leaf_weight": 35,
                                            "leaf_count": 35
                                        },
                                        "right_child": {
                                            "split_index": 19,
                                            "split_feature": 3,
                                            "split_gain": 0.28492000699043274,
                                            "threshold": "2",
                                            "decision_type": "==",
                                            "default_left": false,
                                            "missing_type": "None",
                                            "internal_value": -0.00304523,
                                            "internal_weight": 70,
                                            "internal_count": 70,
                                            "left_child": {
                                                "leaf_index": 19,
                                                "leaf_value": -0.007070872601535586,
                                                "leaf_weight": 27,
                                                "leaf_count": 27
                                            },
                                            "right_child": {
                                                "split_index": 20,
                                                "split_feature": 4,
                                                "split_gain": 0.14052100479602814,
                                                "threshold": "2",
                                                "decision_type": "==",
                                                "default_left": false,
                                                "missing_type": "None",
                                                "internal_value": -0.000517502,
                                                "internal_weight": 43,
                                                "internal_count": 43,
                                                "left_child": {
                                                    "leaf_index": 20,
                                                    "leaf_value": -0.0033100749789313835,
                                                    "leaf_weight": 22,
                                                    "leaf_count": 22
                                                },
                                                "right_child": {
                                                    "leaf_index": 21,
                                                    "leaf_value": 0.0024080514464349975,
                                                    "leaf_weight": 21,
                                                    "leaf_count": 21
                                                }
                                            }
                                        }
                                    }
                                },
                                "right_child": {
                                    "split_index": 14,
                                    "split_feature": 0,
                                    "split_gain": 0.22968600690364838,
                                    "threshold": 0.5926973313900733,
                                    "decision_type": "<=",
                                    "default_left": true,
                                    "missing_type": "None",
                                    "internal_value": 0.00399236,
                                    "internal_weight": 43,
                                    "internal_count": 43,
                                    "left_child": {
                                        "leaf_index": 14,
                                        "leaf_value": 0.00773264587901178,
                                        "leaf_weight": 21,
                                        "leaf_count": 21
                                    },
                                    "right_child": {
                                        "leaf_index": 15,
                                        "leaf_value": 0.0004220802844925361,
                                        "leaf_weight": 22,
                                        "leaf_count": 22
                                    }
                                }
                            }
                        },
                        "right_child": {
                            "split_index": 10,
                            "split_feature": 2,
                            "split_gain": 0.3094640076160431,
                            "threshold": 0.5599619335501124,
                            "decision_type": "<=",
                            "default_left": true,
                            "missing_type": "None",
                            "internal_value": -0.00364524,
                            "internal_weight": 142,
                            "internal_count": 142,
                            "left_child": {
                                "leaf_index": 9,
                                "leaf_value": -0.008155269293735425,
                                "leaf_weight": 30,
                                "leaf_count": 30
                            },
                            "right_child": {
                                "split_index": 11,
                                "split_feature": 2,
                                "split_gain": 0.27994298934936523,
                                "threshold": 0.7755697338101691,
                                "decision_type": "<=",
                                "default_left": true,
                                "missing_type": "None",
                                "internal_value": -0.0024372,
                                "internal_weight": 112,
                                "internal_count": 112,
                                "left_child": {
                                    "split_index": 17,
                                    "split_feature": 3,
                                    "split_gain": 0.13466699421405792,
                                    "threshold": "2",
                                    "decision_type": "==",
                                    "default_left": false,
                                    "missing_type": "None",
                                    "internal_value": -0.00127169,
                                    "internal_weight": 92,
                                    "internal_count": 92,
                                    "left_child": {
                                        "leaf_index": 11,
                                        "leaf_value": 0.0015478491349595375,
                                        "leaf_weight": 29,
                                        "leaf_count": 29
                                    },
                                    "right_child": {
                                        "split_index": 22,
                                        "split_feature": 2,
                                        "split_gain": 0.09633240103721619,
                                        "threshold": 0.6640160476397089,
                                        "decision_type": "<=",
                                        "default_left": true,
                                        "missing_type": "None",
                                        "internal_value": -0.00256957,
                                        "internal_weight": 63,
                                        "internal_count": 63,
                                        "left_child": {
                                            "leaf_index": 18,
                                            "leaf_value": -0.004620177848264575,
                                            "leaf_weight": 30,
                                            "leaf_count": 30
                                        },
                                        "right_child": {
                                            "leaf_index": 23,
                                            "leaf_value": -0.0007053836926140569,
                                            "leaf_weight": 33,
                                            "leaf_count": 33
                                        }
                                    }
                                },
                                "right_child": {
                                    "leaf_index": 12,
                                    "leaf_value": -0.0077985610207542775,
                                    "leaf_weight": 20,
                                    "leaf_count": 20
                                }
                            }
                        }
                    },
                    "right_child": {
                        "split_index": 9,
                        "split_feature": 0,
                        "split_gain": 0.31687700748443604,
                        "threshold": 0.7063589768216988,
                        "decision_type": "<=",
                        "default_left": true,
                        "missing_type": "None",
                        "internal_value": 0.00165958,
                        "internal_weight": 64,
                        "internal_count": 64,
                        "left_child": {
                            "split_index": 23,
                            "split_feature": 1,
                            "split_gain": 0.0930711030960083,
                            "threshold": 0.2894652354358013,
                            "decision_type": "<=",
                            "default_left": true,
                            "missing_type": "None",
                            "internal_value": 0.00429468,
                            "internal_weight": 41,
                            "internal_count": 41,
                            "left_child": {
                                "leaf_index": 8,
                                "leaf_value": 0.006735752318054438,
                                "leaf_weight": 20,
                                "leaf_count": 20
                            },
                            "right_child": {
                                "leaf_index": 24,
                                "leaf_value": 0.0019698544782364652,
                                "leaf_weight": 21,
                                "leaf_count": 21
                            }
                        },
                        "right_child": {
                            "leaf_index": 10,
                            "leaf_value": -0.0030377728236920163,
                            "leaf_weight": 23,
                            "leaf_count": 23
                        }
                    }
                },
                "right_child": {
                    "split_index": 1,
                    "split_feature": 2,
                    "split_gain": 0.36715999245643616,
                    "threshold": 0.7811746892943988,
                    "decision_type": "<=",
                    "default_left": true,
                    "missing_type": "None",
                    "internal_value": 0.00243691,
                    "internal_weight": 230,
                    "internal_count": 230,
                    "left_child": {
                        "split_index": 3,
                        "split_feature": 2,
                        "split_gain": 0.3648039996623993,
                        "threshold": 0.22593852160235192,
                        "decision_type": "<=",
                        "default_left": true,
                        "missing_type": "None",
                        "internal_value": 0.00133035,
                        "internal_weight": 176,
                        "internal_count": 176,
                        "left_child": {
                            "split_index": 4,
                            "split_feature": 1,
                            "split_gain": 0.4520829916000366,
                            "threshold": 0.8924303628130635,
                            "decision_type": "<=",
                            "default_left": true,
                            "missing_type": "None",
                            "internal_value": 0.0044559,
                            "internal_weight": 61,
                            "internal_count": 61,
                            "left_child": {
                                "split_index": 16,
                                "split_feature": 1,
                                "split_gain": 0.1408890038728714,
                                "threshold": 0.7619523750526668,
                                "decision_type": "<=",
                                "default_left": true,
                                "missing_type": "None",
                                "internal_value": 0.00746224,
                                "internal_weight": 41,
                                "internal_count": 41,
                                "left_child": {
                                    "leaf_index": 1,
                                    "leaf_value": 0.004458855409175158,
                                    "leaf_weight": 20,
                                    "leaf_count": 20
                                },
                                "right_child": {
                                    "leaf_index": 17,
                                    "leaf_value": 0.0103226029713239,
                                    "leaf_weight": 21,
                                    "leaf_count": 21
                                }
                            },
                            "right_child": {
                                "leaf_index": 5,
                                "leaf_value": -0.0017070842324756086,
                                "leaf_weight": 20,
                                "leaf_count": 20
                            }
                        },
                        "right_child": {
                            "split_index": 5,
                            "split_feature": 2,
                            "split_gain": 0.3959290087223053,
                            "threshold": 0.44467450210243425,
                            "decision_type": "<=",
                            "default_left": true,
                            "missing_type": "None",
                            "internal_value": -0.000327557,
                            "internal_weight": 115,
                            "internal_count": 115,
                            "left_child": {
                                "split_index": 24,
                                "split_feature": 0,
                                "split_gain": 0.04927210137248039,
                                "threshold": 0.5026580581670269,
                                "decision_type": "<=",
                                "default_left": true,
                                "missing_type": "None",
                                "internal_value": -0.00426899,
                                "internal_weight": 41,
                                "internal_count": 41,
                                "left_child": {
                                    "leaf_index": 4,
                                    "leaf_value": -0.002492862371727824,
                                    "leaf_weight": 20,
                                    "leaf_count": 20
                                },
                                "right_child": {
                                    "leaf_index": 25,
                                    "leaf_value": -0.0059605329187997136,
                                    "leaf_weight": 21,
                                    "leaf_count": 21
                                }
                            },
                            "right_child": {
                                "split_index": 6,
                                "split_feature": 2,
                                "split_gain": 0.37355801463127136,
                                "threshold": 0.6689217414312548,
                                "decision_type": "<=",
                                "default_left": true,
                                "missing_type": "None",
                                "internal_value": 0.00185621,
                                "internal_weight": 74,
                                "internal_count": 74,
                                "left_child": {
                                    "split_index": 21,
                                    "split_feature": 0,
                                    "split_gain": 0.09903780370950699,
                                    "threshold": 0.6159177741561979,
                                    "decision_type": "<=",
                                    "default_left": true,
                                    "missing_type": "None",
                                    "internal_value": 0.00416691,
                                    "internal_weight": 52,
                                    "internal_count": 52,
                                    "left_child": {
                                        "leaf_index": 6,
                                        "leaf_value": 0.006187109655417901,
                                        "leaf_weight": 28,
                                        "leaf_count": 28
                                    },
                                    "right_child": {
                                        "leaf_index": 22,
                                        "leaf_value": 0.0018099995727728431,
                                        "leaf_weight": 24,
                                        "leaf_count": 24
                                    }
                                },
                                "right_child": {
                                    "leaf_index": 7,
                                    "leaf_value": -0.0036054392429915347,
                                    "leaf_weight": 22,
                                    "leaf_count": 22
                                }
                            }
                        }
                    },
                    "right_child": {
                        "split_index": 2,
                        "split_feature": 0,
                        "split_gain": 0.43073800206184387,
                        "threshold": 0.44660415673139575,
                        "decision_type": "<=",
                        "default_left": true,
                        "missing_type": "None",
                        "internal_value": 0.00604347,
                        "internal_weight": 54,
                        "internal_count": 54,
                        "left_child": {
                            "leaf_index": 2,
                            "leaf_value": 0.01085306739062071,
                            "leaf_weight": 25,
                            "leaf_count": 25
                        },
                        "right_child": {
                            "leaf_index": 3,
                            "leaf_value": 0.0018972633326233461,
                            "leaf_weight": 29,
                            "leaf_count": 29
                        }
                    }
                }
            }
        },
        {
            "tree_index": 4,
            "num_leaves": 25,
            "num_cat": 3,
            "shrinkage": 0.05,
            "tree_structure": {
                "split_index": 0,
                "split_feature": 1,
                "split_gain": 0.6989690065383911,
                "threshold": 0.6458698138090428,
                "decision_type": "<=",
                "default_left": true,
                "missing_type": "None",
                "internal_value": 0,
                "internal_weight": 0,
                "internal_count": 647,
                "left_child": {
                    "split_index": 5,
                    "split_feature": 2,
                    "split_gain": 0.24963699281215668,
                    "threshold": 0.8498113810790368,
                    "decision_type": "<=",
                    "default_left": true,
                    "missing_type": "None",
                    "internal_value": -0.0010889,
                    "internal_weight": 423,
                    "internal_count": 423,
                    "left_child": {
                        "split_index": 7,
                        "split_feature": 2,
                        "split_gain": 0.2852570116519928,
                        "threshold": 0.7755697338101691,
                        "decision_type": "<=",
                        "default_left": true,
                        "missing_type": "None",
                        "internal_value": -0.00160647,
                        "internal_weight": 358,
                        "internal_count": 358,
                        "left_child": {
                            "split_index": 10,
                            "split_feature": 1,
                            "split_gain": 0.169622004032135,
                            "threshold": 0.6025168495513552,
                            "decision_type": "<=",
                            "default_left": true,
                            "missing_type": "None",
                            "internal_value": -0.00126314,
                            "internal_weight": 338,
                            "internal_count": 338,
                            "left_child": {
                                "split_index": 11,
                                "split_feature": 1,
                                "split_gain": 0.20958800613880157,
                                "threshold": 0.5551428804508743,
                                "decision_type": "<=",
                                "default_left": true,
                                "missing_type": "None",
                                "internal_value": -0.000933112,
                                "internal_weight": 311,
                                "internal_count": 311,
                                "left_child": {
