{
    "name": "tree",
    "version": "v4",
    "num_class": 1,
    "num_tree_per_iteration": 1,
    "label_index": 0,
    "max_feature_idx": 4,
    "objective": "regression",
    "average_output": false,
    "feature_names": [
        "Column_0",
        "Column_1",
        "Column_2",
        "Column_3",
        "Column_4"
    ],
    "monotone_constraints": [],
    "feature_infos": {
        "Column_0": {
            "min_value": 0.00022703821825553747,
            "max_value": 0.9955689004906878,
            "values": []
        },
        "Column_1": {
            "min_value": 3.071884538241587e-05,
            "max_value": 0.9997176732861306,
            "values": []
        },
        "Column_2": {
            "min_value": 1.1634755366141114e-05,
            "max_value": 0.9988926120332906,
            "values": []
        },
        "Column_3": {
            "min_value": 0.005061583846218686,
            "max_value": 0.996333916056742,
            "values": []
        },
        "Column_4": {
            "min_value": 0.00013469300448532007,
            "max_value": 0.9995577032504384,
            "values": []
        }
    },
    "tree_info": [
        {
            "tree_index": 0,
            "num_leaves": 24,
            "num_cat": 0,
            "shrinkage": 1,
            "tree_structure": {
                "split_index": 0,
                "split_feature": 2,
                "split_gain": 0.9434239864349365,
                "threshold": 0.6665317632867276,
                "decision_type": "<=",
                "default_left": true,
                "missing_type": "None",
                "internal_value": 0.484057,
                "internal_weight": 0,
                "internal_count": 647,
                "left_child": {
                    "split_index": 1,
                    "split_feature": 0,
                    "split_gain": 0.5369899868965149,
                    "threshold": 0.27968034282623455,
                    "decision_type": "<=",
                    "default_left": true,
                    "missing_type": "None",
                    "internal_value": 0.485621,
                    "internal_weight": 456,
                    "internal_count": 456,
                    "left_child": {
                        "split_index": 17,
                        "split_feature": 3,
                        "split_gain": 0.2023790031671524,
                        "threshold": 0.30852590367036536,
                        "decision_type": "<=",
                        "default_left": true,
                        "missing_type": "None",
                        "internal_value": 0.488172,
                        "internal_weight": 142,
                        "internal_count": 142,
                        "left_child": {
                            "leaf_index": 0,
                            "leaf_value": 0.48480806556468664,
                            "leaf_weight": 34,
                            "leaf_count": 34
                        },
                        "right_child": {
                            "split_index": 19,
                            "split_feature": 3,
                            "split_gain": 0.1447090059518814,
                            "threshold": 0.7387320676326817,
                            "decision_type": "<=",
                            "default_left": true,
                            "missing_type": "None",
                            "internal_value": 0.489231,
                            "internal_weight": 108,
                            "internal_count": 108,
                            "left_child": {
                                "split_index": 20,
                                "split_feature": 0,
                                "split_gain": 0.1779869943857193,
                                "threshold": 0.1340037188419965,
                                "decision_type": "<=",
                                "default_left": true,
                                "missing_type": "None",
                                "internal_value": 0.490419,
                                "internal_weight": 76,
                                "internal_count": 76,
                                "left_child": {
                                    "leaf_index": 18,
                                    "leaf_value": 0.4929695285387243,
                                    "leaf_weight": 36,
                                    "leaf_count": 36
                                },
                                "right_child": {
                                    "split_index": 22,
                                    "split_feature": 1,
                                    "split_gain": 0.13130700588226318,
                                    "threshold": 0.6726894656358645,
                                    "decision_type": "<=",
                                    "default_left": true,
                                    "missing_type": "None",
                                    "internal_value": 0.488123,
                                    "internal_weight": 40,
                                    "internal_count": 40,
                                    "left_child": {
                                        "leaf_index": 21,
                                        "leaf_value": 0.4852587186830351,
                                        "leaf_weight": 20,
                                        "leaf_count": 20
                                    },
                                    "right_child": {
                                        "leaf_index": 23,
                                        "leaf_value": 0.4909881922512432,
                                        "leaf_weight": 20,
                                        "leaf_count": 20
                                    }
                                }
                            },
                            "right_child": {
                                "leaf_index": 20,
                                "leaf_value": 0.48641078095068224,
                                "leaf_weight": 32,
                                "leaf_count": 32
                            }
                        }
                    },
                    "right_child": {
                        "split_index": 7,
                        "split_feature": 2,
                        "split_gain": 0.24379700422286987,
                        "threshold": 0.27917218628668156,
                        "decision_type": "<=",
                        "default_left": true,
                        "missing_type": "None",
                        "internal_value": 0.484467,
                        "internal_weight": 314,
                        "internal_count": 314,
                        "left_child": {
                            "split_index": 8,
                            "split_feature": 2,
                            "split_gain": 0.5246909856796265,
                            "threshold": 0.20319954663151615,
                            "decision_type": "<=",
                            "default_left": true,
                            "missing_type": "None",
                            "internal_value": 0.482873,
                            "internal_weight": 136,
                            "internal_count": 136,
                            "left_child": {
                                "split_index": 9,
                                "split_feature": 2,
                                "split_gain": 0.38930898904800415,
                                "threshold": 0.1357688823707963,
                                "decision_type": "<=",
                                "default_left": true,
                                "missing_type": "None",
                                "internal_value": 0.484561,
                                "internal_weight": 105,
                                "internal_count": 105,
                                "left_child": {
                                    "split_index": 18,
                                    "split_feature": 3,
                                    "split_gain": 0.15317100286483765,
                                    "threshold": 0.3346501653163057,
                                    "decision_type": "<=",
                                    "default_left": true,
                                    "missing_type": "None",
                                    "internal_value": 0.482408,
                                    "internal_weight": 70,
                                    "internal_count": 70,
                                    "left_child": {
                                        "leaf_index": 2,
                                        "leaf_value": 0.47926974564581176,
                                        "leaf_weight": 25,
                                        "leaf_count": 25
                                    },
                                    "right_child": {
                                        "split_index": 21,
                                        "split_feature": 1,
                                        "split_gain": 0.13502299785614014,
                                        "threshold": 0.4736407995892562,
                                        "decision_type": "<=",
                                        "default_left": true,
                                        "missing_type": "None",
                                        "internal_value": 0.484151,
                                        "internal_weight": 45,
                                        "internal_count": 45,
                                        "left_child": {
                                            "leaf_index": 19,
                                            "leaf_value": 0.4872131170995999,
                                            "leaf_weight": 20,
                                            "leaf_count": 20
                                        },
                                        "right_child": {
                                            "leaf_index": 22,
                                            "leaf_value": 0.4817012996361591,
                                            "leaf_weight": 25,
                                            "leaf_count": 25
                                        }
                                    }
                                },
                                "right_child": {
                                    "leaf_index": 10,
                                    "leaf_value": 0.4888661541329098,
                                    "leaf_weight": 35,
                                    "leaf_count": 35
                                }
                            },
                            "right_child": {
                                "leaf_index": 9,
                                "leaf_value": 0.47715737676935177,
                                "leaf_weight": 31,
                                "leaf_count": 31
                            }
                        },
                        "right_child": {
                            "split_index": 10,
                            "split_feature": 3,
                            "split_gain": 0.24337400496006012,
                            "threshold": 0.11321443000289795,
                            "decision_type": "<=",
                            "default_left": true,
                            "missing_type": "None",
                            "internal_value": 0.485685,
                            "internal_weight": 178,
                            "internal_count": 178,
                            "left_child": {
                                "leaf_index": 8,
                                "leaf_value": 0.49036803284393193,
                                "leaf_weight": 24,
                                "leaf_count": 24
                            },
                            "right_child": {
                                "split_index": 11,
                                "split_feature": 3,
                                "split_gain": 0.5264459848403931,
                                "threshold": 0.4786459048921313,
                                "decision_type": "<=",
                                "default_left": true,
                                "missing_type": "None",
                                "internal_value": 0.484955,
                                "internal_weight": 154,
                                "internal_count": 154,
                                "left_child": {
                                    "split_index": 15,
                                    "split_feature": 1,
                                    "split_gain": 0.2063090056180954,
                                    "threshold": 0.5714630301043887,
                                    "decision_type": "<=",
                                    "default_left": true,
                                    "missing_type": "None",
                                    "internal_value": 0.481088,
                                    "internal_weight": 56,
                                    "internal_count": 56,
                                    "left_child": {
                                        "leaf_index": 11,
                                        "leaf_value": 0.4833496292599011,
                                        "leaf_weight": 36,
                                        "leaf_count": 36
                                    },
                                    "right_child": {
                                        "leaf_index": 16,
                                        "leaf_value": 0.47701593930949454,
                                        "leaf_weight": 20,
                                        "leaf_count": 20
                                    }
                                },
                                "right_child": {
                                    "split_index": 12,
                                    "split_feature": 1,
                                    "split_gain": 0.2713269889354706,
                                    "threshold": 0.39166279087574657,
                                    "decision_type": "<=",
                                    "default_left": true,
                                    "missing_type": "None",
                                    "internal_value": 0.487165,
                                    "internal_weight": 98,
                                    "internal_count": 98,
                                    "left_child": {
                                        "split_index": 14,
                                        "split_feature": 2,
                                        "split_gain": 0.4530949890613556,
                                        "threshold": 0.5046257699869419,
                                        "decision_type": "<=",
                                        "default_left": true,
                                        "missing_type": "None",
                                        "internal_value": 0.48425,
                                        "internal_weight": 44,
                                        "internal_count": 44,
                                        "left_child": {
                                            "leaf_index": 12,
                                            "leaf_value": 0.4791763236800166,
                                            "leaf_weight": 22,
                                            "leaf_count": 22
                                        },
                                        "right_child": {
                                            "leaf_index": 15,
                                            "leaf_value": 0.4893240348066584,
                                            "leaf_weight": 22,
                                            "leaf_count": 22
                                        }
                                    },
                                    "right_child": {
                                        "split_index": 13,
                                        "split_feature": 2,
                                        "split_gain": 0.6984310150146484,
                                        "threshold": 0.4596109663970787,
                                        "decision_type": "<=",
                                        "default_left": true,
                                        "missing_type": "None",
                                        "internal_value": 0.48954,
                                        "internal_weight": 54,
                                        "internal_count": 54,
                                        "left_child": {
                                            "leaf_index": 13,
                                            "leaf_value": 0.4966678210035787,
                                            "leaf_weight": 21,
                                            "leaf_count": 21
                                        },
                                        "right_child": {
                                            "leaf_index": 14,
                                            "leaf_value": 0.48500343040736027,
                                            "leaf_weight": 33,
                                            "leaf_count": 33
                                        }
                                    }
                                }
                            }
                        }
                    }
                },
                "right_child": {
                    "split_index": 2,
                    "split_feature": 4,
                    "split_gain": 0.27429500222206116,
                    "threshold": 0.7130659269270629,
                    "decision_type": "<=",
                    "default_left": true,
                    "missing_type": "None",
                    "internal_value": 0.481435,
                    "internal_weight": 191,
                    "internal_count": 191,
                    "left_child": {
                        "split_index": 4,
                        "split_feature": 0,
                        "split_gain": 0.2977589964866638,
                        "threshold": 0.4190541627033347,
                        "decision_type": "<=",
                        "default_left": true,
                        "missing_type": "None",
                        "internal_value": 0.482671,
                        "internal_weight": 134,
                        "internal_count": 134,
                        "left_child": {
                            "split_index": 5,
                            "split_feature": 0,
                            "split_gain": 0.5770620107650757,
                            "threshold": 0.24831627248397917,
                            "decision_type": "<=",
                            "default_left": true,
                            "missing_type": "None",
                            "internal_value": 0.484958,
                            "internal_weight": 69,
                            "internal_count": 69,
                            "left_child": {
                                "leaf_index": 1,
                                "leaf_value": 0.4804516710625363,
                                "leaf_weight": 35,
                                "leaf_count": 35
                            },
                            "right_child": {
                                "leaf_index": 6,
                                "leaf_value": 0.48959769687512616,
                                "leaf_weight": 34,
                                "leaf_count": 34
                            }
                        },
                        "right_child": {
                            "split_index": 6,
                            "split_feature": 0,
                            "split_gain": 0.38559699058532715,
                            "threshold": 0.6725817461169635,
                            "decision_type": "<=",
                            "default_left": true,
                            "missing_type": "None",
                            "internal_value": 0.480242,
                            "internal_weight": 65,
                            "internal_count": 65,
                            "left_child": {
                                "leaf_index": 5,
                                "leaf_value": 0.4750383683228764,
                                "leaf_weight": 23,
                                "leaf_count": 23
                            },
                            "right_child": {
                                "split_index": 16,
                                "split_feature": 1,
                                "split_gain": 0.20546600222587585,
                                "threshold": 0.5824424547604775,
                                "decision_type": "<=",
                                "default_left": true,
                                "missing_type": "None",
                                "internal_value": 0.483092,
                                "internal_weight": 42,
                                "internal_count": 42,
                                "left_child": {
                                    "leaf_index": 7,
                                    "leaf_value": 0.4864266569864809,
                                    "leaf_weight": 22,
                                    "leaf_count": 22
                                },
                                "right_child": {
                                    "leaf_index": 17,
                                    "leaf_value": 0.4794243963714689,
                                    "leaf_weight": 20,
                                    "leaf_count": 20
                                }
                            }
                        }
                    },
                    "right_child": {
                        "split_index": 3,
                        "split_feature": 4,
                        "split_gain": 0.7180349826812744,
                        "threshold": 0.8212537296158587,
                        "decision_type": "<=",
                        "default_left": true,
                        "missing_type": "None",
                        "internal_value": 0.47853,
                        "internal_weight": 57,
                        "internal_count": 57,
                        "left_child": {
                            "leaf_index": 3,
                            "leaf_value": 0.47170670142959115,
                            "leaf_weight": 23,
                            "leaf_count": 23
                        },
                        "right_child": {
                            "leaf_index": 4,
                            "leaf_value": 0.48314540887860963,
                            "leaf_weight": 34,
                            "leaf_count": 34
                        }
                    }
                }
            }
        },
        {
            "tree_index": 1,
            "num_leaves": 24,
            "num_cat": 0,
            "shrinkage": 0.05,
            "tree_structure": {
                "split_index": 0,
                "split_feature": 2,
                "split_gain": 0.8514400124549866,
                "threshold": 0.6665317632867276,
                "decision_type": "<=",
                "default_left": true,
                "missing_type": "None",
                "internal_value": 0,
                "internal_weight": 0,
                "internal_count": 647,
                "left_child": {
                    "split_index": 1,
                    "split_feature": 0,
                    "split_gain": 0.4846329987049103,
                    "threshold": 0.27968034282623455,
                    "decision_type": "<=",
                    "default_left": true,
                    "missing_type": "None",
                    "internal_value": 0.00148532,
                    "internal_weight": 456,
                    "internal_count": 456,
                    "left_child": {
                        "split_index": 14,
                        "split_feature": 3,
                        "split_gain": 0.19108699262142181,
                        "threshold": 0.4235281819882627,
                        "decision_type": "<=",
                        "default_left": true,
                        "missing_type": "None",
                        "internal_value": 0.00390922,
                        "internal_weight": 142,
                        "internal_count": 142,
                        "left_child": {
                            "split_index": 20,
                            "split_feature": 4,
                            "split_gain": 0.12070900201797485,
                            "threshold": 0.5509102105764683,
                            "decision_type": "<=",
                            "default_left": true,
                            "missing_type": "None",
                            "internal_value": 0.00163623,
                            "internal_weight": 56,
                            "internal_count": 56,
                            "left_child": {
                                "leaf_index": 0,
                                "leaf_value": -0.0003741365784662776,
                                "leaf_weight": 32,
                                "leaf_count": 32
                            },
                            "right_child": {
                                "leaf_index": 21,
                                "leaf_value": 0.004316726675218282,
                                "leaf_weight": 24,
                                "leaf_count": 24
                            }
                        },
                        "right_child": {
                            "split_index": 15,
                            "split_feature": 4,
                            "split_gain": 0.2478259950876236,
                            "threshold": 0.4130854711869877,
                            "decision_type": "<=",
                            "default_left": true,
                            "missing_type": "None",
                            "internal_value": 0.0053893,
                            "internal_weight": 86,
                            "internal_count": 86,
                            "left_child": {
                                "leaf_index": 15,
                                "leaf_value": 0.008629296935562577,
                                "leaf_weight": 35,
                                "leaf_count": 35
                            },
                            "right_child": {
                                "split_index": 16,
                                "split_feature": 1,
                                "split_gain": 0.1904579997062683,
                                "threshold": 0.5714630301043887,
                                "decision_type": "<=",
                                "default_left": true,
                                "missing_type": "None",
                                "internal_value": 0.00316577,
                                "internal_weight": 51,
                                "internal_count": 51,
                                "left_child": {
                                    "leaf_index": 16,
                                    "leaf_value": -7.509557423569883e-05,
                                    "leaf_weight": 24,
                                    "leaf_count": 24
                                },
                                "right_child": {
                                    "leaf_index": 17,
                                    "leaf_value": 0.006046537689312741,
                                    "leaf_weight": 27,
                                    "leaf_count": 27
                                }
                            }
                        }
                    },
                    "right_child": {
                        "split_index": 6,
                        "split_feature": 2,
                        "split_gain": 0.22002699971199036,
                        "threshold": 0.27917218628668156,
                        "decision_type": "<=",
                        "default_left": true,
                        "missing_type": "None",
                        "internal_value": 0.000389156,
                        "internal_weight": 314,
                        "internal_count": 314,
                        "left_child": {
                            "split_index": 7,
                            "split_feature": 2,
                            "split_gain": 0.4735339879989624,
                            "threshold": 0.20319954663151615,
                            "decision_type": "<=",
                            "default_left": true,
                            "missing_type": "None",
                            "internal_value": -0.00112505,
                            "internal_weight": 136,
                            "internal_count": 136,
                            "left_child": {
                                "split_index": 8,
                                "split_feature": 2,
                                "split_gain": 0.3513520061969757,
                                "threshold": 0.1357688823707963,
                                "decision_type": "<=",
                                "default_left": true,
                                "missing_type": "None",
                                "internal_value": 0.00047806,
                                "internal_weight": 105,
                                "internal_count": 105,
                                "left_child": {
                                    "split_index": 19,
                                    "split_feature": 4,
                                    "split_gain": 0.13833999633789062,
                                    "threshold": 0.37994401347656204,
                                    "decision_type": "<=",
                                    "default_left": true,
                                    "missing_type": "None",
                                    "internal_value": -0.00156712,
                                    "internal_weight": 70,
                                    "internal_count": 70,
                                    "left_child": {
                                        "leaf_index": 2,
                                        "leaf_value": 0.0012379735277068837,
                                        "leaf_weight": 27,
                                        "leaf_count": 27
                                    },
                                    "right_child": {
                                        "split_index": 21,
                                        "split_feature": 4,
                                        "split_gain": 0.09307420253753662,
                                        "threshold": 0.7068172803665316,
                                        "decision_type": "<=",
                                        "default_left": true,
                                        "missing_type": "None",
                                        "internal_value": -0.00332846,
                                        "internal_weight": 43,
                                        "internal_count": 43,
                                        "left_child": {
                                            "leaf_index": 20,
                                            "leaf_value": -0.005709417237501059,
                                            "leaf_weight": 21,
                                            "leaf_count": 21
                                        },
                                        "right_child": {
                                            "leaf_index": 22,
                                            "leaf_value": -0.0010557237314060331,
                                            "leaf_weight": 22,
                                            "leaf_count": 22
                                        }
                                    }
                                },
                                "right_child": {
                                    "leaf_index": 9,
                                    "leaf_value": 0.004568418695458344,
                                    "leaf_weight": 35,
                                    "leaf_count": 35
                                }
                            },
                            "right_child": {
                                "leaf_index": 8,
                                "leaf_value": -0.006554919961960085,
                                "leaf_weight": 31,
                                "leaf_count": 31
                            }
                        },
                        "right_child": {
                            "split_index": 9,
                            "split_feature": 3,
                            "split_gain": 0.2209089994430542,
                            "threshold": 0.1397849446555551,
                            "decision_type": "<=",
                            "default_left": true,
                            "missing_type": "None",
                            "internal_value": 0.00154607,
                            "internal_weight": 178,
                            "internal_count": 178,
                            "left_child": {
                                "leaf_index": 7,
                                "leaf_value": 0.005458419543380539,
                                "leaf_weight": 30,
                                "leaf_count": 30
                            },
                            "right_child": {
                                "split_index": 10,
                                "split_feature": 3,
                                "split_gain": 0.5693590044975281,
                                "threshold": 0.35541195302490064,
                                "decision_type": "<=",
                                "default_left": true,
                                "missing_type": "None",
                                "internal_value": 0.000753031,
                                "internal_weight": 148,
                                "internal_count": 148,
                                "left_child": {
                                    "leaf_index": 10,
                                    "leaf_value": -0.005151508879498579,
                                    "leaf_weight": 32,
                                    "leaf_count": 32
                                },
                                "right_child": {
                                    "split_index": 11,
                                    "split_feature": 1,
                                    "split_gain": 0.20160700380802155,
                                    "threshold": 0.43204790526935105,
                                    "decision_type": "<=",
                                    "default_left": true,
                                    "missing_type": "None",
                                    "internal_value": 0.00238187,
                                    "internal_weight": 116,
                                    "internal_count": 116,
                                    "left_child": {
                                        "split_index": 12,
                                        "split_feature": 2,
                                        "split_gain": 0.5555869936943054,
                                        "threshold": 0.5046257699869419,
                                        "decision_type": "<=",
                                        "default_left": true,
                                        "missing_type": "None",
                                        "internal_value": 0.000186651,
                                        "internal_weight": 55,
                                        "internal_count": 55,
                                        "left_child": {
                                            "leaf_index": 11,
                                            "leaf_value": -0.004748125813369241,
                                            "leaf_weight": 28,
                                            "leaf_count": 28
                                        },
                                        "right_child": {
                                            "leaf_index": 13,
                                            "leaf_value": 0.005304197249589144,
                                            "leaf_weight": 27,
                                            "leaf_count": 27
                                        }
                                    },
                                    "right_child": {
                                        "split_index": 13,
                                        "split_feature": 3,
                                        "split_gain": 0.26227399706840515,
                                        "threshold": 0.7672199873989721,
                                        "decision_type": "<=",
                                        "default_left": true,
                                        "missing_type": "None",
                                        "internal_value": 0.00436117,
                                        "internal_weight": 61,
                                        "internal_count": 61,
                                        "left_child": {
                                            "leaf_index": 12,
                                            "leaf_value": 0.0069118372213683625,
                                            "leaf_weight": 38,
                                            "leaf_count": 38
                                        },
                                        "right_child": {
                                            "leaf_index": 14,
                                            "leaf_value": 0.000147013196154781,
                                            "leaf_weight": 23,
                                            "leaf_count": 23
                                        }
                                    }
                                }
                            }
                        }
                    }
                },
                "right_child": {
                    "split_index": 2,
                    "split_feature": 4,
                    "split_gain": 0.24755200743675232,
                    "threshold": 0.7130659269270629,
                    "decision_type": "<=",
                    "default_left": true,
                    "missing_type": "None",
                    "internal_value": -0.00249118,
                    "internal_weight": 191,
                    "internal_count": 191,
                    "left_child": {
                        "split_index": 4,
                        "split_feature": 1,
                        "split_gain": 0.27331799268722534,
                        "threshold": 0.4469616246644533,
                        "decision_type": "<=",
                        "default_left": true,
                        "missing_type": "None",
                        "internal_value": -0.00131717,
                        "internal_weight": 134,
                        "internal_count": 134,
                        "left_child": {
                            "split_index": 17,
                            "split_feature": 1,
                            "split_gain": 0.17703300714492798,
                            "threshold": 0.29129362594025066,
                            "decision_type": "<=",
                            "default_left": true,
                            "missing_type": "None",
                            "internal_value": 0.00100942,
                            "internal_weight": 65,
                            "internal_count": 65,
                            "left_child": {
                                "split_index": 22,
                                "split_feature": 1,
                                "split_gain": 0.028585800901055336,
                                "threshold": 0.12144389723016226,
                                "decision_type": "<=",
                                "default_left": true,
                                "missing_type": "None",
                                "internal_value": -0.000987006,
                                "internal_weight": 41,
                                "internal_count": 41,
                                "left_child": {
                                    "leaf_index": 1,
                                    "leaf_value": 0.0003014171762125833,
                                    "leaf_weight": 21,
                                    "leaf_count": 21
                                },
                                "right_child": {
                                    "leaf_index": 23,
                                    "leaf_value": -0.0023398511484265328,
                                    "leaf_weight": 20,
                                    "leaf_count": 20
                                }
                            },
                            "right_child": {
                                "leaf_index": 18,
                                "leaf_value": 0.0044199845947635675,
                                "leaf_weight": 24,
                                "leaf_count": 24
                            }
                        },
                        "right_child": {
                            "split_index": 5,
                            "split_feature": 2,
                            "split_gain": 0.3794749975204468,
                            "threshold": 0.8497718263426074,
                            "decision_type": "<=",
                            "default_left": true,
                            "missing_type": "None",
                            "internal_value": -0.00350888,
                            "internal_weight": 69,
                            "internal_count": 69,
                            "left_child": {
                                "split_index": 18,
                                "split_feature": 1,
                                "split_gain": 0.16921499371528625,
                                "threshold": 0.7320927051466982,
                                "decision_type": "<=",
                                "default_left": true,
                                "missing_type": "None",
                                "internal_value": -0.00657314,
                                "internal_weight": 41,
                                "internal_count": 41,
                                "left_child": {
                                    "leaf_index": 5,
                                    "leaf_value": -0.009864618312567472,
                                    "leaf_weight": 20,
                                    "leaf_count": 20
                                },
                                "right_child": {
                                    "leaf_index": 19,
                                    "leaf_value": -0.0034383895180542913,
                                    "leaf_weight": 21,
                                    "leaf_count": 21
                                }
                            },
                            "right_child": {
                                "leaf_index": 6,
                                "leaf_value": 0.0009780547614874585,
                                "leaf_weight": 28,
                                "leaf_count": 28
                            }
                        }
                    },
                    "right_child": {
                        "split_index": 3,
                        "split_feature": 4,
                        "split_gain": 0.6480270028114319,
                        "threshold": 0.8212537296158587,
                        "decision_type": "<=",
                        "default_left": true,
                        "missing_type": "None",
                        "internal_value": -0.00525113,
                        "internal_weight": 57,
                        "internal_count": 57,
                        "left_child": {
                            "leaf_index": 3,
                            "leaf_value": -0.011733061346508887,
                            "leaf_weight": 23,
                            "leaf_count": 23
                        },
                        "right_child": {
                            "leaf_index": 4,
                            "leaf_value": -0.000866289492970442,
                            "leaf_weight": 34,
                            "leaf_count": 34
                        }
                    }
                }
            }
        },
        {
            "tree_index": 2,
            "num_leaves": 24,
            "num_cat": 0,
            "shrinkage": 0.05,
            "tree_structure": {
                "split_index": 0,
                "split_feature": 2,
                "split_gain": 0.7684249877929688,
                "threshold": 0.6665317632867276,
                "decision_type": "<=",
                "default_left": true,
                "missing_type": "None",
                "internal_value": 0,
                "internal_weight": 0,
                "internal_count": 647,
                "left_child": {
                    "split_index": 1,
                    "split_feature": 0,
                    "split_gain": 0.4373820126056671,
                    "threshold": 0.27968034282623455,
                    "decision_type": "<=",
                    "default_left": true,
                    "missing_type": "None",
                    "internal_value": 0.00141105,
                    "internal_weight": 456,
                    "internal_count": 456,
                    "left_child": {
                        "split_index": 18,
                        "split_feature": 3,
                        "split_gain": 0.17245599627494812,
                        "threshold": 0.4235281819882627,
                        "decision_type": "<=",
                        "default_left": true,
                        "missing_type": "None",
                        "internal_value": 0.00371376,
                        "internal_weight": 142,
                        "internal_count": 142,
                        "left_child": {
                            "split_index": 22,
                            "split_feature": 4,
                            "split_gain": 0.1089399978518486,
                            "threshold": 0.5509102105764683,
                            "decision_type": "<=",
                            "default_left": true,
                            "missing_type": "None",
                            "internal_value": 0.00155442,
                            "internal_weight": 56,
                            "internal_count": 56,
                            "left_child": {
                                "leaf_index": 0,
                                "leaf_value": -0.0003554297160007991,
                                "leaf_weight": 32,
                                "leaf_count": 32
                            },
                            "right_child": {
                                "leaf_index": 23,
                                "leaf_value": 0.004100890374199177,
                                "leaf_weight": 24,
                                "leaf_count": 24
                            }
                        },
                        "right_child": {
                            "split_index": 19,
                            "split_feature": 4,
                            "split_gain": 0.22366300225257874,
                            "threshold": 0.4130854711869877,
                            "decision_type": "<=",
                            "default_left": true,
                            "missing_type": "None",
                            "internal_value": 0.00511983,
                            "internal_weight": 86,
                            "internal_count": 86,
                            "left_child": {
                                "leaf_index": 19,
                                "leaf_value": 0.008197831993124315,
                                "leaf_weight": 35,
                                "leaf_count": 35
                            },
                            "right_child": {
                                "split_index": 20,
                                "split_feature": 1,
                                "split_gain": 0.17188799381256104,
                                "threshold": 0.5714630301043887,
                                "decision_type": "<=",
                                "default_left": true,
                                "missing_type": "None",
                                "internal_value": 0.00300748,
                                "internal_weight": 51,
                                "internal_count": 51,
                                "left_child": {
                                    "leaf_index": 20,
                                    "leaf_value": -7.134088082239032e-05,
                                    "leaf_weight": 24,
                                    "leaf_count": 24
                                },
                                "right_child": {
                                    "leaf_index": 21,
                                    "leaf_value": 0.005744210803122433,
                                    "leaf_weight": 27,
                                    "leaf_count": 27
                                }
                            }
                        }
                    },
                    "right_child": {
                        "split_index": 7,
                        "split_feature": 1,
                        "split_gain": 0.2065040022134781,
                        "threshold": 0.935186637527037,
                        "decision_type": "<=",
                        "default_left": true,
                        "missing_type": "None",
                        "internal_value": 0.000369698,
                        "internal_weight": 314,
                        "internal_count": 314,
                        "left_child": {
                            "split_index": 8,
                            "split_feature": 2,
                            "split_gain": 0.3176589906215668,
                            "threshold": 0.27917218628668156,
                            "decision_type": "<=",
                            "default_left": true,
                            "missing_type": "None",
                            "internal_value": -2.3589700000000002e-05,
                            "internal_weight": 287,
                            "internal_count": 287,
                            "left_child": {
                                "split_index": 9,
                                "split_feature": 2,
                                "split_gain": 0.42438098788261414,
                                "threshold": 0.20319954663151615,
                                "decision_type": "<=",
                                "default_left": true,
                                "missing_type": "None",
                                "internal_value": -0.00194437,
                                "internal_weight": 123,
                                "internal_count": 123,
                                "left_child": {
                                    "split_index": 10,
                                    "split_feature": 2,
                                    "split_gain": 0.39862701296806335,
                                    "threshold": 0.09603489201505451,
                                    "decision_type": "<=",
                                    "default_left": true,
                                    "missing_type": "None",
                                    "internal_value": -0.000313086,
                                    "internal_weight": 94,
                                    "internal_count": 94,
                                    "left_child": {
                                        "split_index": 21,
                                        "split_feature": 2,
                                        "split_gain": 0.12565499544143677,
                                        "threshold": 0.05078348961130342,
                                        "decision_type": "<=",
                                        "default_left": true,
                                        "missing_type": "None",
                                        "internal_value": -0.0034334,
                                        "internal_weight": 49,
                                        "internal_count": 49,
                                        "left_child": {
                                            "leaf_index": 2,
                                            "leaf_value": -0.0009525606948882342,
                                            "leaf_weight": 25,
                                            "leaf_count": 25
                                        },
                                        "right_child": {
                                            "leaf_index": 22,
                                            "leaf_value": -0.006017598981270567,
                                            "leaf_weight": 24,
                                            "leaf_count": 24
                                        }
                                    },
                                    "right_child": {
                                        "split_index": 11,
                                        "split_feature": 1,
                                        "split_gain": 0.40046000480651855,
                                        "threshold": 0.47801037768142773,
                                        "decision_type": "<=",
                                        "default_left": true,
                                        "missing_type": "None",
                                        "internal_value": 0.00308458,
                                        "internal_weight": 45,
                                        "internal_count": 45,
                                        "left_child": {
                                            "leaf_index": 11,
                                            "leaf_value": 0.007907348092306745,
                                            "leaf_weight": 22,
                                            "leaf_count": 22
                                        },
                                        "right_child": {
                                            "leaf_index": 12,
                                            "leaf_value": -0.0015284932117261318,
                                            "leaf_weight": 23,
                                            "leaf_count": 23
                                        }
                                    }
                                },
                                "right_child": {
                                    "leaf_index": 10,
                                    "leaf_value": -0.00723199868767426,
                                    "leaf_weight": 29,
                                    "leaf_count": 29
                                }
                            },
                            "right_child": {
                                "split_index": 12,
                                "split_feature": 2,
                                "split_gain": 0.37884199619293213,
                                "threshold": 0.5996479986249824,
                                "decision_type": "<=",
                                "default_left": true,
                                "missing_type": "None",
                                "internal_value": 0.001417,
                                "internal_weight": 164,
                                "internal_count": 164,
                                "left_child": {
                                    "split_index": 13,
                                    "split_feature": 1,
                                    "split_gain": 0.3619779944419861,
                                    "threshold": 0.6407207491195469,
                                    "decision_type": "<=",
                                    "default_left": true,
                                    "missing_type": "None",
                                    "internal_value": 0.00262314,
                                    "internal_weight": 131,
                                    "internal_count": 131,
                                    "left_child": {
                                        "split_index": 14,
                                        "split_feature": 2,
                                        "split_gain": 0.247298002243042,
                                        "threshold": 0.5046257699869419,
                                        "decision_type": "<=",
                                        "default_left": true,
                                        "missing_type": "None",
                                        "internal_value": 0.0011907,
                                        "internal_weight": 101,
                                        "internal_count": 101,
                                        "left_child": {
                                            "split_index": 15,
                                            "split_feature": 4,
                                            "split_gain": 0.26232799887657166,
                                            "threshold": 0.25156976941791404,
                                            "decision_type": "<=",
                                            "default_left": true,
                                            "missing_type": "None",
                                            "internal_value": -0.000417537,
                                            "internal_weight": 71,
                                            "internal_count": 71,
                                            "left_child": {
                                                "leaf_index": 9,
                                                "leaf_value": 0.0035808288241521674,
                                                "leaf_weight": 26,
                                                "leaf_count": 26
                                            },
                                            "right_child": {
                                                "split_index": 16,
                                                "split_feature": 1,
                                                "split_gain": 0.3632439970970154,
                                                "threshold": 0.2728195116025639,
                                                "decision_type": "<=",
                                                "default_left": true,
                                                "missing_type": "None",
                                                "internal_value": -0.0027277,
                                                "internal_weight": 45,
                                                "internal_count": 45,
                                                "left_child": {
                                                    "leaf_index": 16,
                                                    "leaf_value": -0.007750181981828064,
                                                    "leaf_weight": 20,
                                                    "leaf_count": 20
                                                },
                                                "right_child": {
                                                    "leaf_index": 17,
                                                    "leaf_value": 0.001290279467822984,
                                                    "leaf_weight": 25,
                                                    "leaf_count": 25
                                                }
                                            }
                                        },
                                        "right_child": {
                                            "leaf_index": 15,
                                            "leaf_value": 0.0049968718225136405,
                                            "leaf_weight": 30,
                                            "leaf_count": 30
                                        }
                                    },
                                    "right_child": {
                                        "leaf_index": 14,
                                        "leaf_value": 0.007445677360519768,
                                        "leaf_weight": 30,
                                        "leaf_count": 30
                                    }
                                },
                                "right_child": {
                                    "leaf_index": 13,
                                    "leaf_value": -0.0033710173444088665,
                                    "leaf_weight": 33,
                                    "leaf_count": 33
                                }
                            }
                        },
                        "right_child": {
                            "leaf_index": 8,
                            "leaf_value": 0.004550202370241836,
                            "leaf_weight": 27,
                            "leaf_count": 27
                        }
                    }
                },
                "right_child": {
                    "split_index": 2,
                    "split_feature": 4,
                    "split_gain": 0.22341500222682953,
                    "threshold": 0.7130659269270629,
                    "decision_type": "<=",
                    "default_left": true,
                    "missing_type": "None",
                    "internal_value": -0.00236662,
                    "internal_weight": 191,
                    "internal_count": 191,
                    "left_child": {
                        "split_index": 4,
                        "split_feature": 0,
                        "split_gain": 0.26050299406051636,
                        "threshold": 0.4190541627033347,
                        "decision_type": "<=",
                        "default_left": true,
                        "missing_type": "None",
                        "internal_value": -0.00125131,
                        "internal_weight": 134,
                        "internal_count": 134,
                        "left_child": {
                            "split_index": 5,
                            "split_feature": 0,
                            "split_gain": 0.5201950073242188,
                            "threshold": 0.24831627248397917,
                            "decision_type": "<=",
                            "default_left": true,
                            "missing_type": "None",
                            "internal_value": 0.000888405,
                            "internal_weight": 69,
                            "internal_count": 69,
                            "left_child": {
                                "leaf_index": 1,
                                "leaf_value": -0.003390511694763388,
                                "leaf_weight": 35,
                                "leaf_count": 35
                            },
                            "right_child": {
                                "leaf_index": 6,
                                "leaf_value": 0.005293171852827072,
                                "leaf_weight": 34,
                                "leaf_count": 34
                            }
                        },
                        "right_child": {
                            "split_index": 6,
                            "split_feature": 0,
                            "split_gain": 0.34306201338768005,
                            "threshold": 0.6725817461169635,
                            "decision_type": "<=",
                            "default_left": true,
                            "missing_type": "None",
                            "internal_value": -0.0035227,
                            "internal_weight": 65,
                            "internal_count": 65,
                            "left_child": {
                                "leaf_index": 5,
                                "leaf_value": -0.008431328266211178,
                                "leaf_weight": 23,
                                "leaf_count": 23
                            },
                            "right_child": {
                                "split_index": 17,
                                "split_feature": 1,
                                "split_gain": 0.18018800020217896,
                                "threshold": 0.5824424547604775,
                                "decision_type": "<=",
                                "default_left": true,
                                "missing_type": "None",
                                "internal_value": -0.000834643,
                                "internal_weight": 42,
                                "internal_count": 42,
                                "left_child": {
                                    "leaf_index": 7,
                                    "leaf_value": 0.002287921664537862,
                                    "leaf_weight": 22,
                                    "leaf_count": 22
                                },
                                "right_child": {
                                    "leaf_index": 18,
                                    "leaf_value": -0.0042694638465764,
                                    "leaf_weight": 20,
                                    "leaf_count": 20
                                }
                            }
                        }
                    },
                    "right_child": {
                        "split_index": 3,
                        "split_feature": 4,
                        "split_gain": 0.5848439931869507,
                        "threshold": 0.8212537296158587,
                        "decision_type": "<=",
                        "default_left": true,
                        "missing_type": "None",
                        "internal_value": -0.00498857,
                        "internal_weight": 57,
                        "internal_count": 57,
                        "left_child": {
                            "leaf_index": 3,
                            "leaf_value": -0.011146408334657874,
                            "leaf_weight": 23,
                            "leaf_count": 23
                        },
                        "right_child": {
                            "leaf_index": 4,
                            "leaf_value": -0.0008229749023859553,
                            "leaf_weight": 34,
                            "leaf_count": 34
                        }
                    }
                }
            }
        },
        {
            "tree_index": 3,
            "num_leaves": 25,
            "num_cat": 0,
            "shrinkage": 0.05,
            "tree_structure": {
                "split_index": 0,
                "split_feature": 2,
                "split_gain": 0.6935039758682251,
                "threshold": 0.6665317632867276,
                "decision_type": "<=",
                "default_left": true,
                "missing_type": "None",
                "internal_value": 0,
                "internal_weight": 0,
                "internal_count": 647,
                "left_child": {
                    "split_index": 1,
                    "split_feature": 0,
                    "split_gain": 0.39473700523376465,
                    "threshold": 0.27968034282623455,
                    "decision_type": "<=",
                    "default_left": true,
                    "missing_type": "None",
                    "internal_value": 0.0013405,
                    "internal_weight": 456,
                    "internal_count": 456,
                    "left_child": {
                        "split_index": 16,
                        "split_feature": 3,
                        "split_gain": 0.1559540033340454,
                        "threshold": 0.30852590367036536,
                        "decision_type": "<=",
                        "default_left": true,
                        "missing_type": "None",
                        "internal_value": 0.00352807,
                        "internal_weight": 142,
                        "internal_count": 142,
                        "left_child": {
                            "leaf_index": 0,
                            "leaf_value": 0.0005748399755890098,
                            "leaf_weight": 34,
                            "leaf_count": 34
                        },
                        "right_child": {
                            "split_index": 20,
                            "split_feature": 3,
                            "split_gain": 0.13373899459838867,
                            "threshold": 0.7387320676326817,
                            "decision_type": "<=",
                            "default_left": true,
                            "missing_type": "None",
                            "internal_value": 0.00445779,
                            "internal_weight": 108,
                            "internal_count": 108,
                            "left_child": {
                                "split_index": 21,
                                "split_feature": 0,
                                "split_gain": 0.16051900386810303,
                                "threshold": 0.1340037188419965,
                                "decision_type": "<=",
                                "default_left": true,
                                "missing_type": "None",
                                "internal_value": 0.00559949,
                                "internal_weight": 76,
                                "internal_count": 76,
                                "left_child": {
                                    "leaf_index": 17,
                                    "leaf_value": 0.008021669864602801,
                                    "leaf_weight": 36,
                                    "leaf_count": 36
                                },
                                "right_child": {
                                    "split_index": 22,
                                    "split_feature": 1,
                                    "split_gain": 0.11096400022506714,
                                    "threshold": 0.6726894656358645,
                                    "decision_type": "<=",
                                    "default_left": true,
                                    "missing_type": "None",
                                    "internal_value": 0.00341954,
                                    "internal_weight": 40,
                                    "internal_count": 40,
                                    "left_child": {
                                        "leaf_index": 22,
                                        "leaf_value": 0.0007860499114030972,
                                        "leaf_weight": 20,
                                        "leaf_count": 20
                                    },
                                    "right_child": {
                                        "leaf_index": 23,
                                        "leaf_value": 0.006053024280117825,
                                        "leaf_weight": 20,
                                        "leaf_count": 20
                                    }
                                }
                            },
                            "right_child": {
                                "leaf_index": 21,
                                "leaf_value": 0.0017462324525695295,
                                "leaf_weight": 32,
                                "leaf_count": 32
                            }
                        }
                    },
                    "right_child": {
                        "split_index": 5,
                        "split_feature": 3,
                        "split_gain": 0.1957090049982071,
                        "threshold": 0.35541195302490064,
                        "decision_type": "<=",
                        "default_left": true,
                        "missing_type": "None",
                        "internal_value": 0.000351213,
                        "internal_weight": 314,
                        "internal_count": 314,
                        "left_child": {
                            "split_index": 6,
                            "split_feature": 3,
                            "split_gain": 0.5657770037651062,
                            "threshold": 0.27928848003048967,
                            "decision_type": "<=",
                            "default_left": true,
                            "missing_type": "None",
                            "internal_value": -0.00130217,
                            "internal_weight": 114,
                            "internal_count": 114,
                            "left_child": {
                                "split_index": 7,
                                "split_feature": 0,
                                "split_gain": 0.4622330069541931,
                                "threshold": 0.6154286623756932,
                                "decision_type": "<=",
                                "default_left": true,
                                "missing_type": "None",
                                "internal_value": 0.0005168,
                                "internal_weight": 90,
                                "internal_count": 90,
                                "left_child": {
                                    "leaf_index": 2,
                                    "leaf_value": -0.0036748879765678127,
                                    "leaf_weight": 38,
                                    "leaf_count": 38
                                },
                                "right_child": {
                                    "split_index": 8,
                                    "split_feature": 3,
                                    "split_gain": 0.36570098996162415,
                                    "threshold": 0.14585034229137664,
                                    "decision_type": "<=",
                                    "default_left": true,
                                    "missing_type": "None",
                                    "internal_value": 0.00357996,
                                    "internal_weight": 52,
                                    "internal_count": 52,
                                    "left_child": {
                                        "leaf_index": 8,
                                        "leaf_value": 0.007461979574873112,
                                        "leaf_weight": 28,
                                        "leaf_count": 28
                                    },
                                    "right_child": {
                                        "leaf_index": 9,
                                        "leaf_value": -0.0009490703586682988,
                                        "leaf_weight": 24,
                                        "leaf_count": 24
                                    }
                                }
                            },
                            "right_child": {
                                "leaf_index": 7,
                                "leaf_value": -0.00812329100444913,
                                "leaf_weight": 24,
                                "leaf_count": 24
                            }
                        },
                        "right_child": {
                            "split_index": 9,
                            "split_feature": 4,
                            "split_gain": 0.30368998646736145,
                            "threshold": 0.2662623387992469,
                            "decision_type": "<=",
                            "default_left": true,
                            "missing_type": "None",
                            "internal_value": 0.00129364,
                            "internal_weight": 200,
                            "internal_count": 200,
                            "left_child": {
                                "split_index": 10,
                                "split_feature": 4,
                                "split_gain": 0.41902101039886475,
                                "threshold": 0.15302386834539075,
                                "decision_type": "<=",
                                "default_left": true,
                                "missing_type": "None",
                                "internal_value": -0.0017924,
                                "internal_weight": 57,
                                "internal_count": 57,
                                "left_child": {
                                    "leaf_index": 6,
                                    "leaf_value": 0.0021336570847779513,
                                    "leaf_weight": 31,
                                    "leaf_count": 31
                                },
                                "right_child": {
                                    "leaf_index": 11,
                                    "leaf_value": -0.006473459496807593,
                                    "leaf_weight": 26,
                                    "leaf_count": 26
                                }
                            },
                            "right_child": {
                                "split_index": 11,
                                "split_feature": 3,
                                "split_gain": 0.38659900426864624,
                                "threshold": 0.9096317729665871,
                                "decision_type": "<=",
                                "default_left": true,
                                "missing_type": "None",
                                "internal_value": 0.00252374,
                                "internal_weight": 143,
                                "internal_count": 143,
                                "left_child": {
                                    "split_index": 12,
                                    "split_feature": 0,
                                    "split_gain": 0.2562290132045746,
                                    "threshold": 0.9073264814857885,
                                    "decision_type": "<=",
                                    "default_left": true,
                                    "missing_type": "None",
                                    "internal_value": 0.00357206,
                                    "internal_weight": 123,
                                    "internal_count": 123,
                                    "left_child": {
                                        "split_index": 13,
                                        "split_feature": 3,
                                        "split_gain": 0.44841301441192627,
                                        "threshold": 0.5443771480595581,
                                        "decision_type": "<=",
                                        "default_left": true,
                                        "missing_type": "None",
                                        "internal_value": 0.00472469,
                                        "internal_weight": 98,
                                        "internal_count": 98,
                                        "left_child": {
                                            "leaf_index": 10,
                                            "leaf_value": 0.010663592093624176,
                                            "leaf_weight": 24,
                                            "leaf_count": 24
                                        },
                                        "right_child": {
                                            "split_index": 14,
                                            "split_feature": 4,
                                            "split_gain": 0.18535399436950684,
                                            "threshold": 0.5997375083240754,
                                            "decision_type": "<=",
                                            "default_left": true,
                                            "missing_type": "None",
                                            "internal_value": 0.00279856,
                                            "internal_weight": 74,
                                            "internal_count": 74,
                                            "left_child": {
                                                "leaf_index": 14,
                                                "leaf_value": -0.0002319917952020963,
                                                "leaf_weight": 30,
                                                "leaf_count": 30
                                            },
                                            "right_child": {
                                                "split_index": 15,
                                                "split_feature": 1,
                                                "split_gain": 0.34399300813674927,
                                                "threshold": 0.48322356676601835,
                                                "decision_type": "<=",
                                                "default_left": true,
                                                "missing_type": "None",
                                                "internal_value": 0.00486484,
                                                "internal_weight": 44,
                                                "internal_count": 44,
                                                "left_child": {
                                                    "leaf_index": 15,
                                                    "leaf_value": 0.009707781113684179,
                                                    "leaf_weight": 20,
                                                    "leaf_count": 20
                                                },
                                                "right_child": {
                                                    "leaf_index": 16,
                                                    "leaf_value": 0.0008290534276360026,
                                                    "leaf_weight": 24,
                                                    "leaf_count": 24
                                                }
                                            }
                                        }
                                    },
                                    "right_child": {
                                        "leaf_index": 13,
                                        "leaf_value": -0.0009462365824729204,
                                        "leaf_weight": 25,
                                        "leaf_count": 25
                                    }
                                },
                                "right_child": {
                                    "leaf_index": 12,
                                    "leaf_value": -0.003923446513945237,
                                    "leaf_weight": 20,
                                    "leaf_count": 20
                                }
                            }
                        }
                    }
                },
                "right_child": {
                    "split_index": 2,
                    "split_feature": 3,
                    "split_gain": 0.20356500148773193,
                    "threshold": 0.31170361581626155,
                    "decision_type": "<=",
                    "default_left": true,
                    "missing_type": "None",
                    "internal_value": -0.00224829,
                    "internal_weight": 191,
                    "internal_count": 191,
                    "left_child": {
                        "split_index": 3,
                        "split_feature": 4,
                        "split_gain": 0.3832769989967346,
                        "threshold": 0.3924121600879945,
                        "decision_type": "<=",
                        "default_left": true,
                        "missing_type": "None",
                        "internal_value": -0.00457498,
                        "internal_weight": 63,
                        "internal_count": 63,
                        "left_child": {
                            "leaf_index": 1,
                            "leaf_value": 0.0009403390011617117,
                            "leaf_weight": 21,
                            "leaf_count": 21
                        },
                        "right_child": {
                            "split_index": 23,
                            "split_feature": 4,
                            "split_gain": 0.0625900998711586,
                            "threshold": 0.6767043601116,
                            "decision_type": "<=",
                            "default_left": true,
                            "missing_type": "None",
                            "internal_value": -0.00733264,
                            "internal_weight": 42,
                            "internal_count": 42,
                            "left_child": {
                                "leaf_index": 4,
                                "leaf_value": -0.00549228709847243,
                                "leaf_weight": 22,
                                "leaf_count": 22
                            },
                            "right_child": {
                                "leaf_index": 24,
                                "leaf_value": -0.009357035462744535,
                                "leaf_weight": 20,
                                "leaf_count": 20
                            }
                        }
                    },
                    "right_child": {
                        "split_index": 4,
                        "split_feature": 3,
                        "split_gain": 0.2389259934425354,
                        "threshold": 0.4177638807212168,
                        "decision_type": "<=",
                        "default_left": true,
                        "missing_type": "None",
                        "internal_value": -0.00110312,
                        "internal_weight": 128,
                        "internal_count": 128,
                        "left_child": {
                            "leaf_index": 3,
                            "leaf_value": 0.003916761813452467,
                            "leaf_weight": 20,
                            "leaf_count": 20
                        },
                        "right_child": {
                            "split_index": 17,
                            "split_feature": 4,
                            "split_gain": 0.14478999376296997,
                            "threshold": 0.257914656574179,
                            "decision_type": "<=",
                            "default_left": true,
                            "missing_type": "None",
                            "internal_value": -0.00203272,
                            "internal_weight": 108,
                            "internal_count": 108,
                            "left_child": {
                                "leaf_index": 5,
                                "leaf_value": -0.005283956691766015,
                                "leaf_weight": 26,
                                "leaf_count": 26
                            },
                            "right_child": {
                                "split_index": 18,
                                "split_feature": 0,
                                "split_gain": 0.18862399458885193,
                                "threshold": 0.754616162046796,
                                "decision_type": "<=",
                                "default_left": true,
                                "missing_type": "None",
                                "internal_value": -0.00100185,
                                "internal_weight": 82,
                                "internal_count": 82,
                                "left_child": {
                                    "split_index": 19,
                                    "split_feature": 4,
                                    "split_gain": 0.25335898995399475,
                                    "threshold": 0.618191505994096,
                                    "decision_type": "<=",
                                    "default_left": true,
                                    "missing_type": "None",
                                    "internal_value": -0.00259001,
                                    "internal_weight": 57,
                                    "internal_count": 57,
                                    "left_child": {
                                        "leaf_index": 18,
                                        "leaf_value": 0.0014629912452579922,
                                        "leaf_weight": 23,
                                        "leaf_count": 23
                                    },
                                    "right_child": {
                                        "leaf_index": 20,
                                        "leaf_value": -0.005331741311751744,
                                        "leaf_weight": 34,
                                        "leaf_count": 34
                                    }
                                },
                                "right_child": {
                                    "leaf_index": 19,
                                    "leaf_value": 0.002619160169735551,
                                    "leaf_weight": 25,
                                    "leaf_count": 25
                                }
                            }
                        }
                    }
                }
            }
        },
        {
            "tree_index": 4,
            "num_leaves": 24,
            "num_cat": 0,
            "shrinkage": 0.05,
            "tree_structure": {
                "split_index": 0,
                "split_feature": 2,
                "split_gain": 0.6258869767189026,
                "threshold": 0.6665317632867276,
                "decision_type": "<=",
                "default_left": true,
                "missing_type": "None",
                "internal_value": 0,
                "internal_weight": 0,
                "internal_count": 647,
                "left_child": {
                    "split_index": 1,
                    "split_feature": 0,
                    "split_gain": 0.35624998807907104,
                    "threshold": 0.27968034282623455,
                    "decision_type": "<=",
                    "default_left": true,
                    "missing_type": "None",
                    "internal_value": 0.00127347,
                    "internal_weight": 456,
                    "internal_count": 456,
                    "left_child": {
                        "split_index": 18,
                        "split_feature": 3,
                        "split_gain": 0.15040099620819092,
                        "threshold": 0.4235281819882627,
                        "decision_type": "<=",
                        "default_left": true,
                        "missing_type": "None",
                        "internal_value": 0.00335166,
                        "internal_weight": 142,
                        "internal_count": 142,
                        "left_child": {
                            "split_index": 22,
                            "split_feature": 4,
                            "split_gain": 0.0961885005235672,
                            "threshold": 0.5509102105764683,
                            "decision_type": "<=",
                            "default_left": true,
                            "missing_type": "None",
                            "internal_value": 0.00133512,
                            "internal_weight": 56,
                            "internal_count": 56,
                            "left_child": {
                                "leaf_index": 0,
                                "leaf_value": -0.00045947735197842125,
                                "leaf_weight": 32,
                                "leaf_count": 32
                            },
                            "right_child": {
                                "leaf_index": 23,
                                "leaf_value": 0.003727927179230998,
                                "leaf_weight": 24,
                                "leaf_count": 24
                            }
                        },
                        "right_child": {
                            "split_index": 19,
                            "split_feature": 4,
                            "split_gain": 0.19925899803638458,
                            "threshold": 0.4130854711869877,
                            "decision_type": "<=",
                            "default_left": true,
                            "missing_type": "None",
                            "internal_value": 0.00466476,
                            "internal_weight": 86,
                            "internal_count": 86,
                            "left_child": {
                                "leaf_index": 19,
                                "leaf_value": 0.0075699894609195855,
                                "leaf_weight": 35,
                                "leaf_count": 35
                            },
                            "right_child": {
                                "split_index": 20,
                                "split_feature": 3,
                                "split_gain": 0.15452000498771667,
                                "threshold": 0.7387320676326817,
                                "decision_type": "<=",
                                "default_left": true,
                                "missing_type": "None",
                                "internal_value": 0.00267097,
                                "internal_weight": 51,
                                "internal_count": 51,
                                "left_child": {
                                    "leaf_index": 20,
                                    "leaf_value": 0.004973614931514022,
                                    "leaf_weight": 30,
                                    "leaf_count": 30
                                },
                                "right_child": {
                                    "leaf_index": 21,
                                    "leaf_value": -0.0006185115004579227,
                                    "leaf_weight": 21,
                                    "leaf_count": 21
                                }
                            }
                        }
                    },
                    "right_child": {
                        "split_index": 7,
                        "split_feature": 1,
                        "split_gain": 0.17805400490760803,
                        "threshold": 0.9537805924161386,
                        "decision_type": "<=",
                        "default_left": true,
                        "missing_type": "None",
                        "internal_value": 0.000333653,
                        "internal_weight": 314,
                        "internal_count": 314,
                        "left_child": {
                            "split_index": 8,
                            "split_feature": 2,
                            "split_gain": 0.2510550022125244,
                            "threshold": 0.27917218628668156,
                            "decision_type": "<=",
                            "default_left": true,
                            "missing_type": "None",
                            "internal_value": 6.83837e-06,
                            "internal_weight": 292,
                            "internal_count": 292,
                            "left_child": {
                                "split_index": 9,
                                "split_feature": 2,
                                "split_gain": 0.39987900853157043,
                                "threshold": 0.20319954663151615,
                                "decision_type": "<=",
                                "default_left": true,
                                "missing_type": "None",
                                "internal_value": -0.00167596,
                                "internal_weight": 126,
                                "internal_count": 126,
                                "left_child": {
                                    "split_index": 10,
                                    "split_feature": 2,
                                    "split_gain": 0.31843701004981995,
                                    "threshold": 0.09603489201505451,
                                    "decision_type": "<=",
                                    "default_left": true,
                                    "missing_type": "None",
                                    "internal_value": -0.000135812,
                                    "internal_weight": 97,
                                    "internal_count": 97,
                                    "left_child": {
                                        "split_index": 17,
                                        "split_feature": 1,
                                        "split_gain": 0.18052299320697784,
                                        "threshold": 0.5186761552045501,
                                        "decision_type": "<=",
                                        "default_left": true,
                                        "missing_type": "None",
                                        "internal_value": -0.00291335,
                                        "internal_weight": 50,
                                        "internal_count": 50,
                                        "left_child": {
                                            "leaf_index": 2,
                                            "leaf_value": -0.005366395687063535,
                                            "leaf_weight": 30,
                                            "leaf_count": 30
                                        },
                                        "right_child": {
                                            "leaf_index": 18,
                                            "leaf_value": 0.0007662236760370434,
                                            "leaf_weight": 20,
                                            "leaf_count": 20
                                        }
                                    },
                                    "right_child": {
                                        "split_index": 11,
                                        "split_feature": 1,
                                        "split_gain": 0.4489299952983856,
